FANN_FLO_2.1
num_layers=4
learning_rate=0.700000
connection_rate=1.000000
network_type=1
learning_momentum=0.000000
training_algorithm=2
train_error_function=1
train_stop_function=0
cascade_output_change_fraction=0.010000
quickprop_decay=-0.000100
quickprop_mu=1.750000
rprop_increase_factor=1.200000
rprop_decrease_factor=0.500000
rprop_delta_min=0.000000
rprop_delta_max=50.000000
rprop_delta_zero=0.100000
cascade_output_stagnation_epochs=12
cascade_candidate_change_fraction=0.010000
cascade_candidate_stagnation_epochs=12
cascade_max_out_epochs=150
cascade_min_out_epochs=50
cascade_max_cand_epochs=150
cascade_min_cand_epochs=50
cascade_num_candidate_groups=2
bit_fail_limit=3.49999994039535522461e-01
cascade_candidate_limit=1.00000000000000000000e+03
cascade_weight_multiplier=4.00000005960464477539e-01
cascade_activation_functions_count=10
cascade_activation_functions=3 5 7 8 10 11 14 15 16 17 
cascade_activation_steepnesses_count=4
cascade_activation_steepnesses=2.50000000000000000000e-01 5.00000000000000000000e-01 7.50000000000000000000e-01 1.00000000000000000000e+00 
layer_sizes=257 128 100 3 
scale_included=0
neurons (num_inputs, activation_function, activation_steepness)=(0, 0, 0.00000000000000000000e+00) (0, 0, 0.00000000000000000000e+00) (0, 0, 0.00000000000000000000e+00) (0, 0, 0.00000000000000000000e+00) (0, 0, 0.00000000000000000000e+00) (0, 0, 0.00000000000000000000e+00) (0, 0, 0.00000000000000000000e+00) (0, 0, 0.00000000000000000000e+00) (0, 0, 0.00000000000000000000e+00) (0, 0, 0.00000000000000000000e+00) (0, 0, 0.00000000000000000000e+00) (0, 0, 0.00000000000000000000e+00) (0, 0, 0.00000000000000000000e+00) (0, 0, 0.00000000000000000000e+00) (0, 0, 0.00000000000000000000e+00) (0, 0, 0.00000000000000000000e+00) (0, 0, 0.00000000000000000000e+00) (0, 0, 0.00000000000000000000e+00) (0, 0, 0.00000000000000000000e+00) (0, 0, 0.00000000000000000000e+00) (0, 0, 0.00000000000000000000e+00) (0, 0, 0.00000000000000000000e+00) (0, 0, 0.00000000000000000000e+00) (0, 0, 0.00000000000000000000e+00) (0, 0, 0.00000000000000000000e+00) (0, 0, 0.00000000000000000000e+00) (0, 0, 0.00000000000000000000e+00) (0, 0, 0.00000000000000000000e+00) (0, 0, 0.00000000000000000000e+00) (0, 0, 0.00000000000000000000e+00) (0, 0, 0.00000000000000000000e+00) (0, 0, 0.00000000000000000000e+00) (0, 0, 0.00000000000000000000e+00) (0, 0, 0.00000000000000000000e+00) (0, 0, 0.00000000000000000000e+00) (0, 0, 0.00000000000000000000e+00) (0, 0, 0.00000000000000000000e+00) (0, 0, 0.00000000000000000000e+00) (0, 0, 0.00000000000000000000e+00) (0, 0, 0.00000000000000000000e+00) (0, 0, 0.00000000000000000000e+00) (0, 0, 0.00000000000000000000e+00) (0, 0, 0.00000000000000000000e+00) (0, 0, 0.00000000000000000000e+00) (0, 0, 0.00000000000000000000e+00) (0, 0, 0.00000000000000000000e+00) (0, 0, 0.00000000000000000000e+00) (0, 0, 0.00000000000000000000e+00) (0, 0, 0.00000000000000000000e+00) (0, 0, 0.00000000000000000000e+00) (0, 0, 0.00000000000000000000e+00) (0, 0, 0.00000000000000000000e+00) (0, 0, 0.00000000000000000000e+00) (0, 0, 0.00000000000000000000e+00) (0, 0, 0.00000000000000000000e+00) (0, 0, 0.00000000000000000000e+00) (0, 0, 0.00000000000000000000e+00) (0, 0, 0.00000000000000000000e+00) (0, 0, 0.00000000000000000000e+00) (0, 0, 0.00000000000000000000e+00) (0, 0, 0.00000000000000000000e+00) (0, 0, 0.00000000000000000000e+00) (0, 0, 0.00000000000000000000e+00) (0, 0, 0.00000000000000000000e+00) (0, 0, 0.00000000000000000000e+00) (0, 0, 0.00000000000000000000e+00) (0, 0, 0.00000000000000000000e+00) (0, 0, 0.00000000000000000000e+00) (0, 0, 0.00000000000000000000e+00) (0, 0, 0.00000000000000000000e+00) (0, 0, 0.00000000000000000000e+00) (0, 0, 0.00000000000000000000e+00) (0, 0, 0.00000000000000000000e+00) (0, 0, 0.00000000000000000000e+00) (0, 0, 0.00000000000000000000e+00) (0, 0, 0.00000000000000000000e+00) (0, 0, 0.00000000000000000000e+00) (0, 0, 0.00000000000000000000e+00) (0, 0, 0.00000000000000000000e+00) (0, 0, 0.00000000000000000000e+00) (0, 0, 0.00000000000000000000e+00) (0, 0, 0.00000000000000000000e+00) (0, 0, 0.00000000000000000000e+00) (0, 0, 0.00000000000000000000e+00) (0, 0, 0.00000000000000000000e+00) (0, 0, 0.00000000000000000000e+00) (0, 0, 0.00000000000000000000e+00) (0, 0, 0.00000000000000000000e+00) (0, 0, 0.00000000000000000000e+00) (0, 0, 0.00000000000000000000e+00) (0, 0, 0.00000000000000000000e+00) (0, 0, 0.00000000000000000000e+00) (0, 0, 0.00000000000000000000e+00) (0, 0, 0.00000000000000000000e+00) (0, 0, 0.00000000000000000000e+00) (0, 0, 0.00000000000000000000e+00) (0, 0, 0.00000000000000000000e+00) (0, 0, 0.00000000000000000000e+00) (0, 0, 0.00000000000000000000e+00) (0, 0, 0.00000000000000000000e+00) (0, 0, 0.00000000000000000000e+00) (0, 0, 0.00000000000000000000e+00) (0, 0, 0.00000000000000000000e+00) (0, 0, 0.00000000000000000000e+00) (0, 0, 0.00000000000000000000e+00) (0, 0, 0.00000000000000000000e+00) (0, 0, 0.00000000000000000000e+00) (0, 0, 0.00000000000000000000e+00) (0, 0, 0.00000000000000000000e+00) (0, 0, 0.00000000000000000000e+00) (0, 0, 0.00000000000000000000e+00) (0, 0, 0.00000000000000000000e+00) (0, 0, 0.00000000000000000000e+00) (0, 0, 0.00000000000000000000e+00) (0, 0, 0.00000000000000000000e+00) (0, 0, 0.00000000000000000000e+00) (0, 0, 0.00000000000000000000e+00) (0, 0, 0.00000000000000000000e+00) (0, 0, 0.00000000000000000000e+00) (0, 0, 0.00000000000000000000e+00) (0, 0, 0.00000000000000000000e+00) (0, 0, 0.00000000000000000000e+00) (0, 0, 0.00000000000000000000e+00) (0, 0, 0.00000000000000000000e+00) (0, 0, 0.00000000000000000000e+00) (0, 0, 0.00000000000000000000e+00) (0, 0, 0.00000000000000000000e+00) (0, 0, 0.00000000000000000000e+00) (0, 0, 0.00000000000000000000e+00) (0, 0, 0.00000000000000000000e+00) (0, 0, 0.00000000000000000000e+00) (0, 0, 0.00000000000000000000e+00) (0, 0, 0.00000000000000000000e+00) (0, 0, 0.00000000000000000000e+00) (0, 0, 0.00000000000000000000e+00) (0, 0, 0.00000000000000000000e+00) (0, 0, 0.00000000000000000000e+00) (0, 0, 0.00000000000000000000e+00) (0, 0, 0.00000000000000000000e+00) (0, 0, 0.00000000000000000000e+00) (0, 0, 0.00000000000000000000e+00) (0, 0, 0.00000000000000000000e+00) (0, 0, 0.00000000000000000000e+00) (0, 0, 0.00000000000000000000e+00) (0, 0, 0.00000000000000000000e+00) (0, 0, 0.00000000000000000000e+00) (0, 0, 0.00000000000000000000e+00) (0, 0, 0.00000000000000000000e+00) (0, 0, 0.00000000000000000000e+00) (0, 0, 0.00000000000000000000e+00) (0, 0, 0.00000000000000000000e+00) (0, 0, 0.00000000000000000000e+00) (0, 0, 0.00000000000000000000e+00) (0, 0, 0.00000000000000000000e+00) (0, 0, 0.00000000000000000000e+00) (0, 0, 0.00000000000000000000e+00) (0, 0, 0.00000000000000000000e+00) (0, 0, 0.00000000000000000000e+00) (0, 0, 0.00000000000000000000e+00) (0, 0, 0.00000000000000000000e+00) (0, 0, 0.00000000000000000000e+00) (0, 0, 0.00000000000000000000e+00) (0, 0, 0.00000000000000000000e+00) (0, 0, 0.00000000000000000000e+00) (0, 0, 0.00000000000000000000e+00) (0, 0, 0.00000000000000000000e+00) (0, 0, 0.00000000000000000000e+00) (0, 0, 0.00000000000000000000e+00) (0, 0, 0.00000000000000000000e+00) (0, 0, 0.00000000000000000000e+00) (0, 0, 0.00000000000000000000e+00) (0, 0, 0.00000000000000000000e+00) (0, 0, 0.00000000000000000000e+00) (0, 0, 0.00000000000000000000e+00) (0, 0, 0.00000000000000000000e+00) (0, 0, 0.00000000000000000000e+00) (0, 0, 0.00000000000000000000e+00) (0, 0, 0.00000000000000000000e+00) (0, 0, 0.00000000000000000000e+00) (0, 0, 0.00000000000000000000e+00) (0, 0, 0.00000000000000000000e+00) (0, 0, 0.00000000000000000000e+00) (0, 0, 0.00000000000000000000e+00) (0, 0, 0.00000000000000000000e+00) (0, 0, 0.00000000000000000000e+00) (0, 0, 0.00000000000000000000e+00) (0, 0, 0.00000000000000000000e+00) (0, 0, 0.00000000000000000000e+00) (0, 0, 0.00000000000000000000e+00) (0, 0, 0.00000000000000000000e+00) (0, 0, 0.00000000000000000000e+00) (0, 0, 0.00000000000000000000e+00) (0, 0, 0.00000000000000000000e+00) (0, 0, 0.00000000000000000000e+00) (0, 0, 0.00000000000000000000e+00) (0, 0, 0.00000000000000000000e+00) (0, 0, 0.00000000000000000000e+00) (0, 0, 0.00000000000000000000e+00) (0, 0, 0.00000000000000000000e+00) (0, 0, 0.00000000000000000000e+00) (0, 0, 0.00000000000000000000e+00) (0, 0, 0.00000000000000000000e+00) (0, 0, 0.00000000000000000000e+00) (0, 0, 0.00000000000000000000e+00) (0, 0, 0.00000000000000000000e+00) (0, 0, 0.00000000000000000000e+00) (0, 0, 0.00000000000000000000e+00) (0, 0, 0.00000000000000000000e+00) (0, 0, 0.00000000000000000000e+00) (0, 0, 0.00000000000000000000e+00) (0, 0, 0.00000000000000000000e+00) (0, 0, 0.00000000000000000000e+00) (0, 0, 0.00000000000000000000e+00) (0, 0, 0.00000000000000000000e+00) (0, 0, 0.00000000000000000000e+00) (0, 0, 0.00000000000000000000e+00) (0, 0, 0.00000000000000000000e+00) (0, 0, 0.00000000000000000000e+00) (0, 0, 0.00000000000000000000e+00) (0, 0, 0.00000000000000000000e+00) (0, 0, 0.00000000000000000000e+00) (0, 0, 0.00000000000000000000e+00) (0, 0, 0.00000000000000000000e+00) (0, 0, 0.00000000000000000000e+00) (0, 0, 0.00000000000000000000e+00) (0, 0, 0.00000000000000000000e+00) (0, 0, 0.00000000000000000000e+00) (0, 0, 0.00000000000000000000e+00) (0, 0, 0.00000000000000000000e+00) (0, 0, 0.00000000000000000000e+00) (0, 0, 0.00000000000000000000e+00) (0, 0, 0.00000000000000000000e+00) (0, 0, 0.00000000000000000000e+00) (0, 0, 0.00000000000000000000e+00) (0, 0, 0.00000000000000000000e+00) (0, 0, 0.00000000000000000000e+00) (0, 0, 0.00000000000000000000e+00) (0, 0, 0.00000000000000000000e+00) (0, 0, 0.00000000000000000000e+00) (0, 0, 0.00000000000000000000e+00) (0, 0, 0.00000000000000000000e+00) (0, 0, 0.00000000000000000000e+00) (0, 0, 0.00000000000000000000e+00) (0, 0, 0.00000000000000000000e+00) (0, 0, 0.00000000000000000000e+00) (0, 0, 0.00000000000000000000e+00) (0, 0, 0.00000000000000000000e+00) (0, 0, 0.00000000000000000000e+00) (0, 0, 0.00000000000000000000e+00) (0, 0, 0.00000000000000000000e+00) (0, 0, 0.00000000000000000000e+00) (0, 0, 0.00000000000000000000e+00) (0, 0, 0.00000000000000000000e+00) (0, 0, 0.00000000000000000000e+00) (0, 0, 0.00000000000000000000e+00) (0, 0, 0.00000000000000000000e+00) (0, 0, 0.00000000000000000000e+00) (257, 4, 5.00000000000000000000e-01) (257, 4, 5.00000000000000000000e-01) (257, 4, 5.00000000000000000000e-01) (257, 4, 5.00000000000000000000e-01) (257, 4, 5.00000000000000000000e-01) (257, 4, 5.00000000000000000000e-01) (257, 4, 5.00000000000000000000e-01) (257, 4, 5.00000000000000000000e-01) (257, 4, 5.00000000000000000000e-01) (257, 4, 5.00000000000000000000e-01) (257, 4, 5.00000000000000000000e-01) (257, 4, 5.00000000000000000000e-01) (257, 4, 5.00000000000000000000e-01) (257, 4, 5.00000000000000000000e-01) (257, 4, 5.00000000000000000000e-01) (257, 4, 5.00000000000000000000e-01) (257, 4, 5.00000000000000000000e-01) (257, 4, 5.00000000000000000000e-01) (257, 4, 5.00000000000000000000e-01) (257, 4, 5.00000000000000000000e-01) (257, 4, 5.00000000000000000000e-01) (257, 4, 5.00000000000000000000e-01) (257, 4, 5.00000000000000000000e-01) (257, 4, 5.00000000000000000000e-01) (257, 4, 5.00000000000000000000e-01) (257, 4, 5.00000000000000000000e-01) (257, 4, 5.00000000000000000000e-01) (257, 4, 5.00000000000000000000e-01) (257, 4, 5.00000000000000000000e-01) (257, 4, 5.00000000000000000000e-01) (257, 4, 5.00000000000000000000e-01) (257, 4, 5.00000000000000000000e-01) (257, 4, 5.00000000000000000000e-01) (257, 4, 5.00000000000000000000e-01) (257, 4, 5.00000000000000000000e-01) (257, 4, 5.00000000000000000000e-01) (257, 4, 5.00000000000000000000e-01) (257, 4, 5.00000000000000000000e-01) (257, 4, 5.00000000000000000000e-01) (257, 4, 5.00000000000000000000e-01) (257, 4, 5.00000000000000000000e-01) (257, 4, 5.00000000000000000000e-01) (257, 4, 5.00000000000000000000e-01) (257, 4, 5.00000000000000000000e-01) (257, 4, 5.00000000000000000000e-01) (257, 4, 5.00000000000000000000e-01) (257, 4, 5.00000000000000000000e-01) (257, 4, 5.00000000000000000000e-01) (257, 4, 5.00000000000000000000e-01) (257, 4, 5.00000000000000000000e-01) (257, 4, 5.00000000000000000000e-01) (257, 4, 5.00000000000000000000e-01) (257, 4, 5.00000000000000000000e-01) (257, 4, 5.00000000000000000000e-01) (257, 4, 5.00000000000000000000e-01) (257, 4, 5.00000000000000000000e-01) (257, 4, 5.00000000000000000000e-01) (257, 4, 5.00000000000000000000e-01) (257, 4, 5.00000000000000000000e-01) (257, 4, 5.00000000000000000000e-01) (257, 4, 5.00000000000000000000e-01) (257, 4, 5.00000000000000000000e-01) (257, 4, 5.00000000000000000000e-01) (257, 4, 5.00000000000000000000e-01) (257, 4, 5.00000000000000000000e-01) (257, 4, 5.00000000000000000000e-01) (257, 4, 5.00000000000000000000e-01) (257, 4, 5.00000000000000000000e-01) (257, 4, 5.00000000000000000000e-01) (257, 4, 5.00000000000000000000e-01) (257, 4, 5.00000000000000000000e-01) (257, 4, 5.00000000000000000000e-01) (257, 4, 5.00000000000000000000e-01) (257, 4, 5.00000000000000000000e-01) (257, 4, 5.00000000000000000000e-01) (257, 4, 5.00000000000000000000e-01) (257, 4, 5.00000000000000000000e-01) (257, 4, 5.00000000000000000000e-01) (257, 4, 5.00000000000000000000e-01) (257, 4, 5.00000000000000000000e-01) (257, 4, 5.00000000000000000000e-01) (257, 4, 5.00000000000000000000e-01) (257, 4, 5.00000000000000000000e-01) (257, 4, 5.00000000000000000000e-01) (257, 4, 5.00000000000000000000e-01) (257, 4, 5.00000000000000000000e-01) (257, 4, 5.00000000000000000000e-01) (257, 4, 5.00000000000000000000e-01) (257, 4, 5.00000000000000000000e-01) (257, 4, 5.00000000000000000000e-01) (257, 4, 5.00000000000000000000e-01) (257, 4, 5.00000000000000000000e-01) (257, 4, 5.00000000000000000000e-01) (257, 4, 5.00000000000000000000e-01) (257, 4, 5.00000000000000000000e-01) (257, 4, 5.00000000000000000000e-01) (257, 4, 5.00000000000000000000e-01) (257, 4, 5.00000000000000000000e-01) (257, 4, 5.00000000000000000000e-01) (257, 4, 5.00000000000000000000e-01) (257, 4, 5.00000000000000000000e-01) (257, 4, 5.00000000000000000000e-01) (257, 4, 5.00000000000000000000e-01) (257, 4, 5.00000000000000000000e-01) (257, 4, 5.00000000000000000000e-01) (257, 4, 5.00000000000000000000e-01) (257, 4, 5.00000000000000000000e-01) (257, 4, 5.00000000000000000000e-01) (257, 4, 5.00000000000000000000e-01) (257, 4, 5.00000000000000000000e-01) (257, 4, 5.00000000000000000000e-01) (257, 4, 5.00000000000000000000e-01) (257, 4, 5.00000000000000000000e-01) (257, 4, 5.00000000000000000000e-01) (257, 4, 5.00000000000000000000e-01) (257, 4, 5.00000000000000000000e-01) (257, 4, 5.00000000000000000000e-01) (257, 4, 5.00000000000000000000e-01) (257, 4, 5.00000000000000000000e-01) (257, 4, 5.00000000000000000000e-01) (257, 4, 5.00000000000000000000e-01) (257, 4, 5.00000000000000000000e-01) (257, 4, 5.00000000000000000000e-01) (257, 4, 5.00000000000000000000e-01) (257, 4, 5.00000000000000000000e-01) (257, 4, 5.00000000000000000000e-01) (257, 4, 5.00000000000000000000e-01) (257, 4, 5.00000000000000000000e-01) (385, 4, 5.00000000000000000000e-01) (385, 4, 5.00000000000000000000e-01) (385, 4, 5.00000000000000000000e-01) (385, 4, 5.00000000000000000000e-01) (385, 4, 5.00000000000000000000e-01) (385, 4, 5.00000000000000000000e-01) (385, 4, 5.00000000000000000000e-01) (385, 4, 5.00000000000000000000e-01) (385, 4, 5.00000000000000000000e-01) (385, 4, 5.00000000000000000000e-01) (385, 4, 5.00000000000000000000e-01) (385, 4, 5.00000000000000000000e-01) (385, 4, 5.00000000000000000000e-01) (385, 4, 5.00000000000000000000e-01) (385, 4, 5.00000000000000000000e-01) (385, 4, 5.00000000000000000000e-01) (385, 4, 5.00000000000000000000e-01) (385, 4, 5.00000000000000000000e-01) (385, 4, 5.00000000000000000000e-01) (385, 4, 5.00000000000000000000e-01) (385, 4, 5.00000000000000000000e-01) (385, 4, 5.00000000000000000000e-01) (385, 4, 5.00000000000000000000e-01) (385, 4, 5.00000000000000000000e-01) (385, 4, 5.00000000000000000000e-01) (385, 4, 5.00000000000000000000e-01) (385, 4, 5.00000000000000000000e-01) (385, 4, 5.00000000000000000000e-01) (385, 4, 5.00000000000000000000e-01) (385, 4, 5.00000000000000000000e-01) (385, 4, 5.00000000000000000000e-01) (385, 4, 5.00000000000000000000e-01) (385, 4, 5.00000000000000000000e-01) (385, 4, 5.00000000000000000000e-01) (385, 4, 5.00000000000000000000e-01) (385, 4, 5.00000000000000000000e-01) (385, 4, 5.00000000000000000000e-01) (385, 4, 5.00000000000000000000e-01) (385, 4, 5.00000000000000000000e-01) (385, 4, 5.00000000000000000000e-01) (385, 4, 5.00000000000000000000e-01) (385, 4, 5.00000000000000000000e-01) (385, 4, 5.00000000000000000000e-01) (385, 4, 5.00000000000000000000e-01) (385, 4, 5.00000000000000000000e-01) (385, 4, 5.00000000000000000000e-01) (385, 4, 5.00000000000000000000e-01) (385, 4, 5.00000000000000000000e-01) (385, 4, 5.00000000000000000000e-01) (385, 4, 5.00000000000000000000e-01) (385, 4, 5.00000000000000000000e-01) (385, 4, 5.00000000000000000000e-01) (385, 4, 5.00000000000000000000e-01) (385, 4, 5.00000000000000000000e-01) (385, 4, 5.00000000000000000000e-01) (385, 4, 5.00000000000000000000e-01) (385, 4, 5.00000000000000000000e-01) (385, 4, 5.00000000000000000000e-01) (385, 4, 5.00000000000000000000e-01) (385, 4, 5.00000000000000000000e-01) (385, 4, 5.00000000000000000000e-01) (385, 4, 5.00000000000000000000e-01) (385, 4, 5.00000000000000000000e-01) (385, 4, 5.00000000000000000000e-01) (385, 4, 5.00000000000000000000e-01) (385, 4, 5.00000000000000000000e-01) (385, 4, 5.00000000000000000000e-01) (385, 4, 5.00000000000000000000e-01) (385, 4, 5.00000000000000000000e-01) (385, 4, 5.00000000000000000000e-01) (385, 4, 5.00000000000000000000e-01) (385, 4, 5.00000000000000000000e-01) (385, 4, 5.00000000000000000000e-01) (385, 4, 5.00000000000000000000e-01) (385, 4, 5.00000000000000000000e-01) (385, 4, 5.00000000000000000000e-01) (385, 4, 5.00000000000000000000e-01) (385, 4, 5.00000000000000000000e-01) (385, 4, 5.00000000000000000000e-01) (385, 4, 5.00000000000000000000e-01) (385, 4, 5.00000000000000000000e-01) (385, 4, 5.00000000000000000000e-01) (385, 4, 5.00000000000000000000e-01) (385, 4, 5.00000000000000000000e-01) (385, 4, 5.00000000000000000000e-01) (385, 4, 5.00000000000000000000e-01) (385, 4, 5.00000000000000000000e-01) (385, 4, 5.00000000000000000000e-01) (385, 4, 5.00000000000000000000e-01) (385, 4, 5.00000000000000000000e-01) (385, 4, 5.00000000000000000000e-01) (385, 4, 5.00000000000000000000e-01) (385, 4, 5.00000000000000000000e-01) (385, 4, 5.00000000000000000000e-01) (385, 4, 5.00000000000000000000e-01) (385, 4, 5.00000000000000000000e-01) (385, 4, 5.00000000000000000000e-01) (385, 4, 5.00000000000000000000e-01) (385, 4, 5.00000000000000000000e-01) (385, 4, 5.00000000000000000000e-01) (485, 4, 5.00000000000000000000e-01) (485, 4, 5.00000000000000000000e-01) (485, 4, 5.00000000000000000000e-01) 
connections (connected_to_neuron, weight)=(0, 6.03307113051414489746e-02) (1, -5.26512116193771362305e-02) (2, 5.70106729865074157715e-02) (3, 6.43517747521400451660e-02) (4, -7.10379630327224731445e-02) (5, 5.57782873511314392090e-02) (6, -5.66698648035526275635e-02) (7, 8.86086449027061462402e-02) (8, 6.55853822827339172363e-02) (9, 2.58654579520225524902e-02) (10, 1.71722024679183959961e-02) (11, -6.84489458799362182617e-02) (12, -5.46068660914897918701e-02) (13, 4.31619361042976379395e-02) (14, -1.47225335240364074707e-02) (15, -7.49893486499786376953e-02) (16, 6.94803148508071899414e-03) (17, 3.77236083149909973145e-02) (18, 3.49394753575325012207e-02) (19, -5.83657883107662200928e-02) (20, -7.53144174814224243164e-03) (21, 9.12913903594017028809e-02) (22, -4.80605848133563995361e-02) (23, -7.27910697460174560547e-02) (24, 4.87756207585334777832e-02) (25, -2.58485525846481323242e-02) (26, 8.45603421330451965332e-02) (27, 9.24273952841758728027e-02) (28, 1.40057951211929321289e-02) (29, -8.72812718152999877930e-02) (30, 4.36166152358055114746e-02) (31, -2.56634876132011413574e-02) (32, -3.99324782192707061768e-02) (33, 6.27294182777404785156e-04) (34, -6.13117255270481109619e-02) (35, -1.09704434871673583984e-02) (36, -4.35944199562072753906e-02) (37, -1.79815888404846191406e-02) (38, -2.23618000745773315430e-02) (39, -7.80090317130088806152e-02) (40, -9.21161249279975891113e-02) (41, 9.48104187846183776855e-02) (42, -4.64579761028289794922e-02) (43, -4.67229895293712615967e-02) (44, 3.79723384976387023926e-02) (45, 3.88194993138313293457e-02) (46, -2.17123329639434814453e-02) (47, -5.50796203315258026123e-02) (48, -2.34569013118743896484e-02) (49, -8.67728665471076965332e-02) (50, -1.34454071521759033203e-02) (51, 6.90116509795188903809e-02) (52, -9.54814776778221130371e-02) (53, 3.84940132498741149902e-02) (54, 9.62205901741981506348e-02) (55, 5.32941445708274841309e-02) (56, -8.73545333743095397949e-02) (57, 8.07809308171272277832e-02) (58, 4.57215383648872375488e-02) (59, 2.66512706875801086426e-02) (60, 9.34996530413627624512e-02) (61, -1.06618255376815795898e-02) (62, -9.90122333168983459473e-02) (63, -4.64328303933143615723e-02) (64, 8.99654701352119445801e-02) (65, -6.46048560738563537598e-02) (66, 5.65544962882995605469e-02) (67, -6.89871311187744140625e-02) (68, 1.52869941666722297668e-02) (69, -8.62331390380859375000e-02) (70, -3.61161157488822937012e-02) (71, 2.93110702186822891235e-02) (72, -5.86929097771644592285e-02) (73, 4.90914620459079742432e-02) (74, 7.93101489543914794922e-02) (75, 5.23151345551013946533e-02) (76, -6.12131915986537933350e-02) (77, -3.49558033049106597900e-02) (78, 9.95850861072540283203e-02) (79, 3.44542525708675384521e-02) (80, -3.34138125181198120117e-02) (81, -1.63978263735771179199e-02) (82, -5.83050725981593132019e-03) (83, -1.31471259519457817078e-02) (84, -4.58466820418834686279e-02) (85, -1.12764025107026100159e-03) (86, -7.03914314508438110352e-02) (87, -5.37633299827575683594e-02) (88, -1.88259109854698181152e-02) (89, 8.49732235074043273926e-02) (90, 6.23123534023761749268e-02) (91, -2.32205539941787719727e-02) (92, -3.27574610710144042969e-02) (93, 6.32711723446846008301e-02) (94, 3.03466245532035827637e-02) (95, -4.27919998764991760254e-02) (96, -9.70527753233909606934e-02) (97, -7.96357095241546630859e-02) (98, 2.35469229519367218018e-02) (99, -1.35442867875099182129e-01) (100, 2.88066715002059936523e-02) (101, -2.85334199666976928711e-01) (102, -4.08212952315807342529e-02) (103, 5.53646311163902282715e-02) (104, 2.37913161516189575195e-01) (105, -2.63701647520065307617e-01) (106, -5.66027797758579254150e-02) (107, 1.16558320820331573486e-01) (108, -1.37037679553031921387e-01) (109, -1.09425731003284454346e-01) (110, -1.37352794408798217773e-01) (111, 1.23450011014938354492e-01) (112, -6.48528113961219787598e-02) (113, 3.03148049861192703247e-02) (114, -2.34776154160499572754e-01) (115, -2.24702268838882446289e-01) (116, -1.90090164542198181152e-02) (117, -2.84967392683029174805e-01) (118, -1.67263224720954895020e-01) (119, 2.37684145569801330566e-01) (120, -6.02868497371673583984e-02) (121, 1.63064166903495788574e-01) (122, -4.55581657588481903076e-02) (123, 2.88069173693656921387e-02) (124, 2.78454795479774475098e-02) (125, 9.10182818770408630371e-02) (126, 8.60149189829826354980e-02) (127, 3.07927206158638000488e-02) (128, -4.94617111980915069580e-02) (129, -2.44781989604234695435e-02) (130, -5.92537336051464080811e-02) (131, 5.27135692536830902100e-02) (132, -3.93476746976375579834e-02) (133, 7.04468134790658950806e-03) (134, -3.57879102230072021484e-02) (135, 5.20776174962520599365e-02) (136, 4.53864932060241699219e-02) (137, 2.47699394822120666504e-02) (138, 9.59056988358497619629e-03) (139, -5.99258989095687866211e-02) (140, 8.30337628722190856934e-02) (141, -9.90602895617485046387e-02) (142, -8.41136127710342407227e-02) (143, 2.49659940600395202637e-02) (144, 9.98594462871551513672e-02) (145, -3.12931723892688751221e-02) (146, -4.23039030283689498901e-03) (147, -5.54203009232878684998e-03) (148, 5.24308420717716217041e-02) (149, -1.61966693121939897537e-03) (150, -1.55977383255958557129e-02) (151, -8.57998952269554138184e-02) (152, -3.70453260838985443115e-02) (153, 4.50611673295497894287e-02) (154, 4.27509620785713195801e-02) (155, 9.08136516809463500977e-02) (156, 3.60410623252391815186e-02) (157, 2.88681406527757644653e-02) (158, 2.14009284973144531250e-02) (159, -1.00483372807502746582e-01) (160, -1.09846204519271850586e-01) (161, 7.68736600875854492188e-02) (162, 5.14505319297313690186e-02) (163, -1.98749098926782608032e-02) (164, -1.32927596569061279297e-02) (165, -7.74547904729843139648e-02) (166, -6.44563511013984680176e-02) (167, -7.32430741190910339355e-02) (168, 1.60427391529083251953e-02) (169, -9.69691649079322814941e-02) (170, -2.79319491237401962280e-02) (171, 3.39976809918880462646e-02) (172, 4.73020002245903015137e-02) (173, -4.16765920817852020264e-03) (174, -3.79370860755443572998e-02) (175, 4.52109053730964660645e-02) (176, 4.59639579057693481445e-02) (177, 5.67181073129177093506e-02) (178, -6.16931654512882232666e-02) (179, 1.36694768443703651428e-02) (180, -5.12455664575099945068e-02) (181, 1.29609489813446998596e-02) (182, 2.96310484409332275391e-02) (183, 1.84369105845689773560e-02) (184, -4.12998944520950317383e-02) (185, -2.94404327869415283203e-02) (186, 6.66563026607036590576e-03) (187, -9.78269726037979125977e-02) (188, -1.03364177048206329346e-01) (189, -8.14513638615608215332e-02) (190, -1.13264471292495727539e-01) (191, -8.35589542984962463379e-02) (192, -8.85993167757987976074e-02) (193, 7.05255940556526184082e-02) (194, 2.79627740383148193359e-03) (195, -2.40072607994079589844e-01) (196, 9.30828526616096496582e-02) (197, 3.26332561671733856201e-02) (198, 3.15449610352516174316e-02) (199, 4.22449484467506408691e-02) (200, -1.61165818572044372559e-02) (201, -9.00698378682136535645e-02) (202, -2.28087380528450012207e-02) (203, -6.88145831227302551270e-02) (204, 5.85206598043441772461e-03) (205, 4.15938571095466613770e-02) (206, 7.83850029110908508301e-02) (207, -2.92121544480323791504e-02) (208, -1.58375114202499389648e-01) (209, -1.46082729101181030273e-01) (210, 8.83975252509117126465e-02) (211, 6.10350444912910461426e-02) (212, 5.82065507769584655762e-02) (213, 2.02454552054405212402e-02) (214, -1.70612111687660217285e-02) (215, -6.46076351404190063477e-02) (216, 9.51385572552680969238e-02) (217, 9.56682488322257995605e-02) (218, -5.13296090066432952881e-02) (219, 9.90917459130287170410e-02) (220, -6.99838846921920776367e-02) (221, -3.79977487027645111084e-02) (222, -7.83010274171829223633e-02) (223, -5.85831999778747558594e-02) (224, -6.74721598625183105469e-02) (225, 2.44952589273452758789e-02) (226, 3.95247265696525573730e-02) (227, -7.43893012404441833496e-02) (228, -3.71392816305160522461e-02) (229, -2.89303213357925415039e-02) (230, 6.78556486964225769043e-02) (231, 4.67441305518150329590e-02) (232, -1.90001577138900756836e-02) (233, -5.49530945718288421631e-02) (234, 7.79295638203620910645e-02) (235, 8.68519023060798645020e-02) (236, 8.66407677531242370605e-02) (237, 5.63145652413368225098e-02) (238, -4.23602424561977386475e-02) (239, -1.12477391958236694336e-02) (240, 8.24092105031013488770e-02) (241, -5.39627186954021453857e-02) (242, -5.02127073705196380615e-02) (243, 4.06157448887825012207e-02) (244, 6.62827417254447937012e-02) (245, 3.27260866761207580566e-02) (246, 7.60081186890602111816e-02) (247, 6.14212974905967712402e-02) (248, 2.83943340182304382324e-02) (249, -7.53214880824089050293e-02) (250, 6.05130568146705627441e-02) (251, 5.84104433655738830566e-02) (252, -1.33192315697669982910e-02) (253, 8.22120234370231628418e-02) (254, 9.98272374272346496582e-02) (255, 1.92086100578308105469e-02) (256, -1.87996423244476318359e+00) (0, 3.93519774079322814941e-02) (1, 4.48193028569221496582e-02) (2, 6.95679858326911926270e-02) (3, -8.95783454179763793945e-02) (4, 1.26749500632286071777e-02) (5, 1.63121372461318969727e-02) (6, -8.57850164175033569336e-03) (7, 5.77218607068061828613e-02) (8, -5.75831532478332519531e-03) (9, -2.17265933752059936523e-02) (10, 4.43626269698143005371e-02) (11, -4.94437590241432189941e-02) (12, 3.59131768345832824707e-02) (13, -6.68851137161254882812e-02) (14, -6.70345425605773925781e-02) (15, 8.19504484534263610840e-02) (16, -1.70978233218193054199e-02) (17, 7.35812112689018249512e-02) (18, 4.82331886887550354004e-02) (19, -8.43717381358146667480e-02) (20, 4.95893433690071105957e-02) (21, 9.65448468923568725586e-03) (22, 4.40225824713706970215e-02) (23, 7.42678418755531311035e-02) (24, -2.98324674367904663086e-02) (25, 2.43303924798965454102e-03) (26, -3.90513911843299865723e-02) (27, -4.76204417645931243896e-02) (28, 2.26028263568878173828e-03) (29, 8.01572278141975402832e-02) (30, 5.90868368744850158691e-02) (31, -5.83877526223659515381e-02) (32, 2.49765366315841674805e-02) (33, 2.86548361182212829590e-02) (34, -4.79661002755165100098e-02) (35, -6.23485110700130462646e-02) (36, -5.50330355763435363770e-02) (37, 4.34553995728492736816e-02) (38, 9.53733399510383605957e-02) (39, 3.92086580395698547363e-02) (40, -7.82711878418922424316e-02) (41, 3.97359803318977355957e-02) (42, 8.97649005055427551270e-02) (43, 5.76419904828071594238e-02) (44, 7.28508606553077697754e-02) (45, -7.72696509957313537598e-02) (46, 3.95924374461174011230e-02) (47, -4.42469604313373565674e-02) (48, 9.63115617632865905762e-02) (49, -1.21743828058242797852e-02) (50, -2.86187008023262023926e-02) (51, 4.59008887410163879395e-02) (52, 9.74801108241081237793e-02) (53, -8.45961123704910278320e-02) (54, 2.01687365770339965820e-02) (55, -3.23523655533790588379e-02) (56, 1.78369134664535522461e-02) (57, 8.11173394322395324707e-02) (58, 2.00271978974342346191e-02) (59, -7.99027979373931884766e-02) (60, 6.12745806574821472168e-02) (61, -2.08859592676162719727e-02) (62, -3.82905490696430206299e-02) (63, -1.37488916516304016113e-02) (64, -9.22311246395111083984e-02) (65, 9.04623791575431823730e-03) (66, 3.63493524491786956787e-02) (67, -6.23492971062660217285e-02) (68, -4.91372048854827880859e-02) (69, 1.27776041626930236816e-02) (70, 8.74341651797294616699e-02) (71, -2.15313900262117385864e-02) (72, -1.70383676886558532715e-02) (73, 1.06053009629249572754e-01) (74, -6.71847239136695861816e-02) (75, -6.88475444912910461426e-02) (76, -1.16924941539764404297e-01) (77, 7.90692046284675598145e-02) (78, -1.11724408343434333801e-02) (79, -1.02211512625217437744e-01) (80, -4.37787286937236785889e-02) (81, 5.81279173493385314941e-02) (82, 3.48718687891960144043e-02) (83, -3.17981429398059844971e-02) (84, 1.02689921855926513672e-01) (85, -3.66939269006252288818e-02) (86, 2.65907365828752517700e-02) (87, 1.93084368947893381119e-03) (88, -5.41026331484317779541e-02) (89, -4.44357953965663909912e-02) (90, 1.23559329658746719360e-02) (91, -9.07871648669242858887e-02) (92, 2.82565727829933166504e-02) (93, 7.40445926785469055176e-02) (94, -4.53605502843856811523e-03) (95, 3.60254421830177307129e-02) (96, -1.22120603919029235840e-02) (97, -1.55119985342025756836e-01) (98, 1.04878507554531097412e-01) (99, -1.14054277539253234863e-01) (100, 5.91057166457176208496e-02) (101, -2.96754300594329833984e-01) (102, -7.48040527105331420898e-02) (103, 1.38051897287368774414e-01) (104, 2.82136440277099609375e-01) (105, -2.48628720641136169434e-01) (106, -8.79698097705841064453e-02) (107, 1.23455233871936798096e-01) (108, -2.05602034926414489746e-01) (109, -5.56521974503993988037e-02) (110, -7.67052620649337768555e-02) (111, 2.76127066463232040405e-02) (112, -1.33158922195434570312e-01) (113, -5.17631992697715759277e-02) (114, -1.32046341896057128906e-01) (115, -3.45353394746780395508e-01) (116, 3.91613207757472991943e-02) (117, -2.76422798633575439453e-01) (118, -2.64121908694505691528e-02) (119, 7.01942890882492065430e-02) (120, 1.89660042524337768555e-02) (121, 4.42520901560783386230e-02) (122, -6.78297504782676696777e-02) (123, -3.13845202326774597168e-02) (124, -7.08512142300605773926e-02) (125, 3.36943343281745910645e-02) (126, -9.53590795397758483887e-02) (127, 1.69367343187332153320e-02) (128, 4.89366613328456878662e-02) (129, 8.92439261078834533691e-02) (130, -4.24956120550632476807e-02) (131, -9.60461515933275222778e-03) (132, 7.38471671938896179199e-02) (133, -1.49334957823157310486e-02) (134, -1.09824584797024726868e-02) (135, 3.54685299098491668701e-02) (136, 4.59245890378952026367e-02) (137, 1.80962681770324707031e-02) (138, 3.27218696475028991699e-03) (139, 8.15270170569419860840e-02) (140, -6.48048594594001770020e-02) (141, -2.92652696371078491211e-02) (142, -1.68869942426681518555e-02) (143, 1.08112497255206108093e-02) (144, 8.52312669157981872559e-02) (145, -5.43889850378036499023e-02) (146, 6.25672414898872375488e-02) (147, 6.06717057526111602783e-02) (148, 3.68463136255741119385e-02) (149, 5.43077103793621063232e-03) (150, 9.53394100069999694824e-02) (151, -2.27343309670686721802e-02) (152, 6.05350211262702941895e-02) (153, -6.64341375231742858887e-02) (154, 4.58055511116981506348e-02) (155, 8.96873921155929565430e-02) (156, 6.72490820288658142090e-02) (157, 5.04767410457134246826e-02) (158, 6.56378362327814102173e-03) (159, 2.01661977916955947876e-02) (160, 1.65199842303991317749e-02) (161, 6.84985667467117309570e-02) (162, -9.34517234563827514648e-02) (163, 1.80247016251087188721e-02) (164, -4.56108413636684417725e-02) (165, 1.38230971060693264008e-03) (166, -4.54407446086406707764e-02) (167, -1.05756029486656188965e-01) (168, -1.11829817295074462891e-01) (169, -8.01536142826080322266e-02) (170, 7.75553509593009948730e-02) (171, -4.46418449282646179199e-02) (172, -7.10709840059280395508e-02) (173, -3.27478460967540740967e-02) (174, 6.61395713686943054199e-02) (175, -8.77558067440986633301e-02) (176, 7.37421726807951927185e-03) (177, 2.99536604434251785278e-02) (178, 7.77149945497512817383e-02) (179, -5.12658506631851196289e-02) (180, -6.86182454228401184082e-02) (181, 7.01739192008972167969e-02) (182, 2.63627301901578903198e-02) (183, 9.60328131914138793945e-02) (184, -9.60597693920135498047e-02) (185, -2.97100283205509185791e-02) (186, 8.49567651748657226562e-02) (187, 7.06267133355140686035e-02) (188, -7.85609334707260131836e-02) (189, -1.12919639796018600464e-02) (190, -1.08673973008990287781e-02) (191, 6.57150223851203918457e-02) (192, -3.80718968808650970459e-02) (193, 9.02005285024642944336e-03) (194, -1.44193917512893676758e-02) (195, -2.14526906609535217285e-01) (196, -8.95938575267791748047e-02) (197, 3.45917046070098876953e-02) (198, 1.70279294252395629883e-02) (199, -6.93328082561492919922e-02) (200, -1.90784037113189697266e-03) (201, 7.05875456333160400391e-04) (202, -1.30637735128402709961e-02) (203, 2.70211771130561828613e-02) (204, 6.79844841361045837402e-02) (205, -4.46566343307495117188e-02) (206, 4.11927774548530578613e-02) (207, -1.90351977944374084473e-02) (208, 3.89965884387493133545e-02) (209, 3.58059449354186654091e-04) (210, 3.08632329106330871582e-02) (211, -7.70654976367950439453e-02) (212, -2.48090922832489013672e-03) (213, -4.19613309204578399658e-02) (214, -8.00082311034202575684e-02) (215, 6.92173093557357788086e-03) (216, 3.11065986752510070801e-02) (217, -9.32596474885940551758e-02) (218, -1.64115056395530700684e-02) (219, 5.47079518437385559082e-02) (220, 1.16989016532897949219e-04) (221, 8.05802270770072937012e-02) (222, 2.22449451684951782227e-02) (223, 6.20451048016548156738e-02) (224, -1.03997215628623962402e-02) (225, -9.21744629740715026855e-02) (226, -2.16376334428787231445e-02) (227, 6.41494989395141601562e-06) (228, 4.79729101061820983887e-02) (229, 9.53902974724769592285e-02) (230, 3.06736156344413757324e-02) (231, -5.39349317550659179688e-02) (232, -3.90382856130599975586e-03) (233, -8.23901668190956115723e-02) (234, 7.30862393975257873535e-02) (235, -3.59193533658981323242e-02) (236, -2.70467996597290039062e-02) (237, 1.42790079116821289062e-02) (238, 4.50454577803611755371e-02) (239, -4.06270325183868408203e-02) (240, -6.40347599983215332031e-02) (241, -2.40913182497024536133e-02) (242, -1.76925286650657653809e-02) (243, 3.34843322634696960449e-02) (244, 3.39473560452461242676e-02) (245, 2.29923427104949951172e-03) (246, -5.95939420163631439209e-02) (247, -3.49460467696189880371e-02) (248, 9.03959572315216064453e-03) (249, 2.39945501089096069336e-02) (250, -8.02380964159965515137e-02) (251, -9.08434167504310607910e-02) (252, 4.57477569580078125000e-03) (253, 4.20068427920341491699e-02) (254, 7.12016895413398742676e-02) (255, 9.41750481724739074707e-02) (256, -1.89075863361358642578e+00) (0, -5.04359565675258636475e-02) (1, -5.81853091716766357422e-03) (2, -2.19471007585525512695e-03) (3, -5.50456605851650238037e-02) (4, -7.51449167728424072266e-02) (5, 4.38703522086143493652e-02) (6, 4.10505011677742004395e-02) (7, -5.75350858271121978760e-02) (8, 1.69566050171852111816e-02) (9, -9.48688462376594543457e-02) (10, 1.54181122779846191406e-02) (11, -6.87643885612487792969e-02) (12, 5.01766279339790344238e-02) (13, 7.47910812497138977051e-02) (14, -3.27991470694541931152e-02) (15, -7.39146992564201354980e-02) (16, -4.29014526307582855225e-02) (17, -9.93148311972618103027e-02) (18, 6.00326582789421081543e-02) (19, 5.93977794051170349121e-02) (20, -5.89087717235088348389e-02) (21, -7.49133899807929992676e-02) (22, -3.15626189112663269043e-02) (23, 6.50857761502265930176e-02) (24, -5.51514849066734313965e-02) (25, -2.24060267210006713867e-02) (26, -3.03394421935081481934e-02) (27, 8.68553593754768371582e-02) (28, -5.12043498456478118896e-02) (29, -3.61643880605697631836e-02) (30, 3.66877391934394836426e-02) (31, -1.64030492305755615234e-03) (32, 5.80170825123786926270e-02) (33, -6.55069649219512939453e-02) (34, 4.33140471577644348145e-02) (35, 8.28721597790718078613e-02) (36, 7.83633962273597717285e-02) (37, -1.56354606151580810547e-02) (38, -7.46629238128662109375e-02) (39, -4.68000769615173339844e-03) (40, -1.05042979121208190918e-02) (41, 4.07551899552345275879e-02) (42, 2.65556052327156066895e-02) (43, -6.03276863694190979004e-02) (44, 1.55462622642517089844e-02) (45, 9.37564447522163391113e-02) (46, -3.42423841357231140137e-02) (47, 7.26448222994804382324e-02) (48, 9.44416299462318420410e-02) (49, -7.42097273468971252441e-02) (50, 3.20426002144813537598e-02) (51, -6.44671469926834106445e-02) (52, -4.91231195628643035889e-02) (53, -9.95200201869010925293e-02) (54, -9.93813648819923400879e-02) (55, -4.27459925413131713867e-03) (56, -2.19260528683662414551e-02) (57, -2.97208055853843688965e-02) (58, -1.74192339181900024414e-02) (59, 2.68696025013923645020e-02) (60, 3.41148003935813903809e-02) (61, -8.07314962148666381836e-02) (62, -7.47707039117813110352e-02) (63, -7.86811858415603637695e-03) (64, -4.62384633719921112061e-02) (65, 6.34805113077163696289e-02) (66, 1.22047122567892074585e-02) (67, -9.87810641527175903320e-02) (68, -5.96795231103897094727e-02) (69, -1.16258431226015090942e-02) (70, 1.92418564110994338989e-02) (71, 4.32834215462207794189e-02) (72, 7.25866714492440223694e-03) (73, 2.57463976740837097168e-02) (74, 7.69062861800193786621e-02) (75, 5.53766526281833648682e-02) (76, -9.76996570825576782227e-02) (77, -3.76437939703464508057e-02) (78, 3.56074646115303039551e-02) (79, -6.20152056217193603516e-02) (80, -4.11683283746242523193e-02) (81, -4.04183492064476013184e-02) (82, -4.74524125456809997559e-02) (83, 4.83826473355293273926e-02) (84, 4.12960126996040344238e-02) (85, -2.92883738875389099121e-02) (86, -8.49823281168937683105e-02) (87, 6.64413794875144958496e-02) (88, 4.41939793527126312256e-02) (89, 2.07951702177524566650e-02) (90, -3.31317894160747528076e-02) (91, -1.72559097409248352051e-02) (92, 2.20753178000450134277e-02) (93, -8.01719725131988525391e-03) (94, 7.48759731650352478027e-02) (95, 7.58368596434593200684e-02) (96, -3.94738614559173583984e-02) (97, 9.03553888201713562012e-03) (98, -2.66281235963106155396e-02) (99, -2.95694202184677124023e-01) (100, 2.26796373724937438965e-01) (101, -4.91902202367782592773e-01) (102, -8.28159321099519729614e-03) (103, 2.28891208767890930176e-01) (104, 7.24946081638336181641e-01) (105, -3.80188494920730590820e-01) (106, 1.17647703737020492554e-02) (107, 9.28473472595214843750e-02) (108, -2.18609780073165893555e-01) (109, -1.21760450303554534912e-01) (110, -1.54874369502067565918e-01) (111, 3.27629983425140380859e-01) (112, -1.60200312733650207520e-01) (113, -8.34646150469779968262e-02) (114, -3.10050606727600097656e-01) (115, -6.15882635116577148438e-01) (116, 5.93987219035625457764e-02) (117, -5.09124279022216796875e-01) (118, -9.34572815895080566406e-02) (119, 4.64859515428543090820e-01) (120, -1.37570798397064208984e-01) (121, 1.60000562667846679688e-01) (122, -4.61438633501529693604e-02) (123, 2.89795920252799987793e-02) (124, -9.92432236671447753906e-04) (125, -5.83063103258609771729e-02) (126, 4.81645017862319946289e-03) (127, 5.95337077975273132324e-02) (128, -1.56751815229654312134e-02) (129, 5.57000981643795967102e-03) (130, -3.47424820065498352051e-02) (131, -6.04724548757076263428e-02) (132, -5.22672384977340698242e-02) (133, 2.74685248732566833496e-02) (134, -6.74773752689361572266e-02) (135, -6.42861276865005493164e-02) (136, 6.60306364297866821289e-02) (137, 7.95729011297225952148e-02) (138, -2.54271030426025390625e-02) (139, -5.00309653580188751221e-02) (140, -4.30891774594783782959e-02) (141, 5.36866784095764160156e-02) (142, -8.90088155865669250488e-02) (143, 9.45969298481941223145e-02) (144, 1.11937606707215309143e-02) (145, -4.44938801229000091553e-03) (146, 9.71074253320693969727e-02) (147, 3.44202481210231781006e-02) (148, 9.96809825301170349121e-02) (149, 3.75425294041633605957e-02) (150, 3.07313874363899230957e-02) (151, -9.33096632361412048340e-02) (152, 4.45672944188117980957e-02) (153, 9.75422114133834838867e-02) (154, 3.55385132133960723877e-02) (155, -5.64185902476310729980e-02) (156, -6.07835240662097930908e-02) (157, -5.95925748348236083984e-02) (158, -9.69897210597991943359e-02) (159, 3.05412523448467254639e-02) (160, -6.25640479847788810730e-03) (161, -2.40023750811815261841e-02) (162, 6.07186108827590942383e-02) (163, -9.85644757747650146484e-02) (164, -9.51053351163864135742e-02) (165, -9.42833051085472106934e-02) (166, -6.09520971775054931641e-02) (167, 5.75616806745529174805e-02) (168, 1.70570183545351028442e-02) (169, -2.86300569772720336914e-01) (170, -8.92265439033508300781e-02) (171, -5.68622685968875885010e-02) (172, -3.20634767413139343262e-02) (173, -6.41302242875099182129e-02) (174, -6.29154816269874572754e-02) (175, 7.49611333012580871582e-02) (176, 2.19055805355310440063e-02) (177, -6.26492649316787719727e-02) (178, 2.09913142025470733643e-02) (179, 2.94105578213930130005e-02) (180, 6.66087269783020019531e-02) (181, -5.32706379890441894531e-02) (182, 3.66299040615558624268e-02) (183, 1.96570716798305511475e-02) (184, -5.53807578980922698975e-02) (185, -3.19352000951766967773e-02) (186, 6.19147568941116333008e-02) (187, -1.88840571790933609009e-02) (188, 1.05850249528884887695e-02) (189, 6.00496605038642883301e-02) (190, -8.94761383533477783203e-02) (191, -3.55413891375064849854e-02) (192, -5.57681284844875335693e-02) (193, 9.67588648200035095215e-02) (194, -3.09140235185623168945e-02) (195, -5.52548348903656005859e-01) (196, -9.75175276398658752441e-02) (197, -3.92674468457698822021e-03) (198, -7.92600288987159729004e-02) (199, 8.92783477902412414551e-02) (200, -7.80356824398040771484e-02) (201, -5.51808625459671020508e-02) (202, -6.56061246991157531738e-02) (203, -1.00991576910018920898e-02) (204, -1.92652195692062377930e-02) (205, -2.35935598611831665039e-02) (206, -3.09492200613021850586e-02) (207, -8.76417085528373718262e-02) (208, -6.65030479431152343750e-02) (209, 5.78868165612220764160e-02) (210, 4.37871292233467102051e-02) (211, -7.44410604238510131836e-03) (212, -4.86024208366870880127e-02) (213, -1.80744156241416931152e-02) (214, -8.60112011432647705078e-02) (215, 5.48579543828964233398e-03) (216, 5.57532235980033874512e-02) (217, 7.90096595883369445801e-02) (218, 9.88168194890022277832e-02) (219, -2.99134999513626098633e-02) (220, 4.71521690487861633301e-02) (221, -7.70356580615043640137e-02) (222, 3.77036556601524353027e-02) (223, 9.13840308785438537598e-02) (224, -8.02767872810363769531e-02) (225, -9.32103693485260009766e-02) (226, -5.94894327223300933838e-02) (227, -7.77943134307861328125e-02) (228, 1.49366036057472229004e-02) (229, -3.87494638562202453613e-02) (230, -8.85159671306610107422e-02) (231, 3.69009301066398620605e-02) (232, 6.06967508792877197266e-03) (233, -5.41220866143703460693e-02) (234, -7.31982439756393432617e-02) (235, 8.68044570088386535645e-02) (236, 2.22843512892723083496e-02) (237, -4.14745509624481201172e-03) (238, 9.91627499461174011230e-02) (239, -6.20122961699962615967e-02) (240, -9.28898155689239501953e-03) (241, 4.29498776793479919434e-02) (242, 3.05436030030250549316e-02) (243, 4.21086028218269348145e-02) (244, -7.51245394349098205566e-02) (245, 4.45323958992958068848e-02) (246, -5.24056069552898406982e-02) (247, 8.06286856532096862793e-02) (248, 2.35420465469360351562e-02) (249, -5.35887889564037322998e-02) (250, -4.92848232388496398926e-02) (251, -2.93057933449745178223e-02) (252, -3.06244492530822753906e-02) (253, 8.84188339114189147949e-02) (254, -3.79217639565467834473e-02) (255, -1.09012350440025329590e-02) (256, -1.56715834140777587891e+00) (0, 2.58880853652954101562e-03) (1, 1.13044530153274536133e-02) (2, 1.01450681686401367188e-02) (3, 6.38393387198448181152e-02) (4, 2.27884873747825622559e-02) (5, -5.29540143907070159912e-02) (6, -3.00909876823425292969e-02) (7, 6.86664059758186340332e-02) (8, -2.61522531509399414062e-02) (9, -4.32865321636199951172e-02) (10, -9.04925167560577392578e-03) (11, 6.97002932429313659668e-02) (12, -4.41237948834896087646e-02) (13, 2.89384648203849792480e-02) (14, -3.95886972546577453613e-02) (15, 9.88260880112648010254e-02) (16, -4.05179522931575775146e-02) (17, -9.74800959229469299316e-02) (18, -7.62984454631805419922e-02) (19, -9.59855541586875915527e-02) (20, -4.98856976628303527832e-02) (21, -9.56697613000869750977e-02) (22, 2.75565013289451599121e-02) (23, -3.47448885440826416016e-03) (24, -4.49545867741107940674e-02) (25, 9.82507094740867614746e-02) (26, 6.59010633826255798340e-02) (27, -5.65357543528079986572e-02) (28, -3.96710522472858428955e-02) (29, -4.50001731514930725098e-02) (30, -6.13272897899150848389e-02) (31, 6.29177466034889221191e-02) (32, 6.63042739033699035645e-02) (33, 4.88177761435508728027e-02) (34, 2.67570987343788146973e-02) (35, -1.09072402119636535645e-02) (36, 9.58637669682502746582e-02) (37, 9.66661050915718078613e-02) (38, -4.22408357262611389160e-02) (39, -3.02884951233863830566e-02) (40, -4.66204285621643066406e-02) (41, 4.87099215388298034668e-02) (42, -6.05882070958614349365e-02) (43, 9.25578176975250244141e-03) (44, -2.23516300320625305176e-02) (45, -1.76899135112762451172e-04) (46, 8.08187574148178100586e-03) (47, 3.71304228901863098145e-02) (48, 2.34299898147583007812e-03) (49, 3.17834243178367614746e-02) (50, 4.11448702216148376465e-02) (51, 5.24573102593421936035e-02) (52, 3.61136719584465026855e-02) (53, -3.12986299395561218262e-02) (54, -5.10171800851821899414e-02) (55, 9.11590829491615295410e-02) (56, -3.30479219555854797363e-02) (57, -8.51161181926727294922e-02) (58, -6.53766691684722900391e-02) (59, 2.72810235619544982910e-02) (60, -3.01162898540496826172e-02) (61, -2.67039611935615539551e-02) (62, -9.80122387409210205078e-03) (63, -6.38120174407958984375e-02) (64, -7.78861865401268005371e-02) (65, -8.67034494876861572266e-02) (66, 1.05259297415614128113e-02) (67, -7.87172242999076843262e-02) (68, -8.53943228721618652344e-02) (69, 8.30792263150215148926e-02) (70, -1.23895583674311637878e-02) (71, -3.47690470516681671143e-02) (72, 8.92890896648168563843e-03) (73, -7.17008777428418397903e-04) (74, 7.44867175817489624023e-02) (75, -9.06410440802574157715e-02) (76, -6.66623711585998535156e-02) (77, -2.51038577407598495483e-02) (78, 4.23187203705310821533e-02) (79, 2.80079506337642669678e-02) (80, -8.33263099193572998047e-02) (81, -1.21685927733778953552e-02) (82, -1.46163441240787506104e-02) (83, 4.03930880129337310791e-02) (84, 2.80454810708761215210e-02) (85, 3.19268852472305297852e-02) (86, 4.39856126904487609863e-02) (87, -8.56834575533866882324e-02) (88, 4.62992526590824127197e-02) (89, 7.16445446014404296875e-02) (90, 5.05292527377605438232e-02) (91, -8.45252946019172668457e-02) (92, -4.86852638423442840576e-02) (93, -5.91932609677314758301e-02) (94, -4.83373105525970458984e-02) (95, -2.65714451670646667480e-02) (96, -4.22373898327350616455e-02) (97, -1.24427698552608489990e-01) (98, -4.54218126833438873291e-02) (99, -1.09469527378678321838e-02) (100, -8.29211771488189697266e-02) (101, -9.11101028323173522949e-02) (102, 3.91909386962652206421e-03) (103, -7.34636262059211730957e-02) (104, -2.32518240809440612793e-01) (105, -5.29498495161533355713e-02) (106, 5.34164253622293472290e-03) (107, -2.01156660914421081543e-02) (108, 4.06347252428531646729e-02) (109, -8.79079625010490417480e-02) (110, -1.71937569975852966309e-01) (111, -3.09757411479949951172e-01) (112, 3.34474258124828338623e-02) (113, 6.40212148427963256836e-02) (114, 3.13179870136082172394e-03) (115, -3.59082594513893127441e-02) (116, -2.31707394123077392578e-01) (117, 3.32858264446258544922e-02) (118, 2.19611320644617080688e-02) (119, -2.04633787274360656738e-01) (120, -5.89303206652402877808e-03) (121, -1.26191228628158569336e-01) (122, -6.22272826731204986572e-02) (123, 4.00703921914100646973e-02) (124, 6.44999742507934570312e-03) (125, -1.24531686305999755859e-02) (126, -8.65010619163513183594e-02) (127, 6.42126128077507019043e-02) (128, -3.49189415574073791504e-02) (129, 5.45138912275433540344e-03) (130, -6.37976527214050292969e-02) (131, -7.53546059131622314453e-02) (132, -1.59654319286346435547e-02) (133, 7.40847736597061157227e-02) (134, 1.62515342235565185547e-02) (135, 9.03594866394996643066e-02) (136, -1.13210668787360191345e-02) (137, -8.24861153960227966309e-02) (138, 2.33303476125001907349e-02) (139, -1.22013567015528678894e-02) (140, -3.48949432373046875000e-02) (141, 8.57362747192382812500e-02) (142, 2.77878041379153728485e-03) (143, -9.94939208030700683594e-02) (144, 2.98163220286369323730e-02) (145, -2.99317799508571624756e-02) (146, -7.94650800526142120361e-03) (147, -9.34265181422233581543e-02) (148, 8.08031111955642700195e-02) (149, -9.29245129227638244629e-02) (150, -7.49572888016700744629e-02) (151, -3.04496288299560546875e-02) (152, -2.72803213447332382202e-02) (153, -3.90730910003185272217e-02) (154, -9.03692170977592468262e-02) (155, 7.91683942079544067383e-02) (156, 4.84757833182811737061e-02) (157, -7.68742784857749938965e-02) (158, 4.33897338807582855225e-02) (159, -8.70151296257972717285e-02) (160, 3.75179052352905273438e-02) (161, 7.89853185415267944336e-02) (162, -6.06686770915985107422e-02) (163, -8.79740789532661437988e-02) (164, 5.29617443680763244629e-02) (165, 5.36444857716560363770e-02) (166, -9.77798998355865478516e-02) (167, -5.61686381697654724121e-02) (168, 8.21177214384078979492e-02) (169, 7.34616219997406005859e-02) (170, 3.13227064907550811768e-02) (171, -6.37045949697494506836e-02) (172, 1.12399458885192871094e-02) (173, -6.80833011865615844727e-02) (174, -6.29004761576652526855e-02) (175, -5.82763068377971649170e-02) (176, 2.70550861023366451263e-03) (177, 2.85001434385776519775e-02) (178, -5.39468750357627868652e-02) (179, -1.70848127454519271851e-02) (180, 3.67625690996646881104e-02) (181, -2.85257473587989807129e-02) (182, 5.24668432772159576416e-02) (183, -9.17187258601188659668e-02) (184, 3.23752872645854949951e-02) (185, 6.27599731087684631348e-02) (186, 8.75506624579429626465e-02) (187, -1.82193648070096969604e-02) (188, 8.53327140212059020996e-02) (189, 3.13098877668380737305e-02) (190, -5.87219698354601860046e-03) (191, 1.33113292977213859558e-02) (192, 9.67492908239364624023e-03) (193, 3.05328443646430969238e-02) (194, 2.50955298542976379395e-02) (195, 4.27480414509773254395e-02) (196, -1.58227458596229553223e-02) (197, 2.92435493320226669312e-02) (198, 4.22517955303192138672e-03) (199, -4.48401160538196563721e-02) (200, -4.71480377018451690674e-02) (201, -6.65768682956695556641e-02) (202, -8.85926187038421630859e-03) (203, 6.40918985009193420410e-02) (204, -3.46641913056373596191e-02) (205, 2.74533107876777648926e-02) (206, -9.48533192276954650879e-02) (207, 6.73047825694084167480e-02) (208, -3.79635132849216461182e-02) (209, -4.63631264865398406982e-02) (210, -4.99329976737499237061e-02) (211, 9.12339761853218078613e-02) (212, 2.15655118227005004883e-02) (213, -9.76218804717063903809e-02) (214, 9.93806198239326477051e-02) (215, -4.67768684029579162598e-02) (216, 6.43085315823554992676e-02) (217, 8.66958871483802795410e-02) (218, 3.33544388413429260254e-02) (219, 4.93571683764457702637e-02) (220, 1.73923820257186889648e-02) (221, -7.35503137111663818359e-02) (222, -3.75708937644958496094e-02) (223, -7.29326903820037841797e-02) (224, 5.69825246930122375488e-02) (225, 8.75246450304985046387e-02) (226, -1.02960243821144104004e-02) (227, -5.88402114808559417725e-02) (228, 1.48401707410812377930e-02) (229, 9.39291641116142272949e-02) (230, -3.68032604455947875977e-03) (231, 6.76921233534812927246e-02) (232, -7.26476982235908508301e-02) (233, 8.74604061245918273926e-02) (234, 3.17840352654457092285e-02) (235, -7.31188803911209106445e-03) (236, 1.49137154221534729004e-02) (237, 3.69307175278663635254e-02) (238, -4.00071106851100921631e-02) (239, 7.07196667790412902832e-02) (240, 8.77654626965522766113e-02) (241, 1.00598931312561035156e-02) (242, 6.19536265730857849121e-02) (243, 9.33096557855606079102e-03) (244, 1.24380141496658325195e-02) (245, 6.13342449069023132324e-02) (246, 6.25540986657142639160e-02) (247, -2.32534557580947875977e-02) (248, 4.80301156640052795410e-02) (249, -4.09147143363952636719e-03) (250, -7.38962963223457336426e-02) (251, -3.45774963498115539551e-02) (252, 2.23582163453102111816e-02) (253, -1.14671885967254638672e-02) (254, -7.51018524169921875000e-03) (255, -2.06592530012130737305e-02) (256, -1.96072983741760253906e+00) (0, 8.21937993168830871582e-02) (1, 2.05005407333374023438e-02) (2, 9.08976271748542785645e-02) (3, 7.61229619383811950684e-02) (4, -8.31797942519187927246e-02) (5, 5.85897639393806457520e-02) (6, -9.65247377753257751465e-02) (7, -9.57193896174430847168e-02) (8, -9.62620973587036132812e-03) (9, -3.83662432432174682617e-03) (10, 1.91943272948265075684e-02) (11, -7.26954936981201171875e-02) (12, 5.61562702059745788574e-02) (13, -1.00860148668289184570e-02) (14, -8.49300473928451538086e-02) (15, -3.37838381528854370117e-02) (16, -4.81323897838592529297e-02) (17, 2.44009271264076232910e-02) (18, 7.86541774868965148926e-02) (19, -8.67981538176536560059e-02) (20, -1.30449831485748291016e-02) (21, -4.45992909371852874756e-02) (22, 6.12319782376289367676e-02) (23, 8.28635469079017639160e-02) (24, -1.84955820441246032715e-02) (25, -7.33455270528793334961e-02) (26, 5.22176176309585571289e-03) (27, 7.00372233986854553223e-02) (28, 1.91442817449569702148e-02) (29, 8.45625028014183044434e-02) (30, -5.39053194224834442139e-02) (31, 1.33808702230453491211e-03) (32, 5.06304204463958740234e-03) (33, -6.30076974630355834961e-02) (34, -2.25389525294303894043e-02) (35, 2.18832492828369140625e-02) (36, 9.55820754170417785645e-02) (37, -1.90636962652206420898e-02) (38, 2.61638686060905456543e-02) (39, -1.40441507101058959961e-02) (40, 7.70996883511543273926e-02) (41, -5.46418130397796630859e-02) (42, 1.32603496313095092773e-02) (43, 3.32559421658515930176e-02) (44, 3.52721735835075378418e-02) (45, 2.83303186297416687012e-02) (46, 9.94721129536628723145e-02) (47, 8.71397927403450012207e-02) (48, -4.72687669098377227783e-02) (49, 7.81262740492820739746e-02) (50, -9.96583700180053710938e-02) (51, 3.96862551569938659668e-02) (52, -6.64730146527290344238e-02) (53, 6.15736022591590881348e-02) (54, 2.25497931241989135742e-02) (55, 1.50313973426818847656e-02) (56, 8.82280841469764709473e-02) (57, -7.22284466028213500977e-02) (58, -1.49313658475875854492e-02) (59, 7.37236440181732177734e-03) (60, -8.76659452915191650391e-02) (61, 3.11633124947547912598e-02) (62, -9.12895500659942626953e-02) (63, 1.73970907926559448242e-02) (64, 6.81556239724159240723e-02) (65, -1.68845858424901962280e-02) (66, -7.47995451092720031738e-02) (67, 6.75799772143363952637e-02) (68, 6.83547705411911010742e-02) (69, 6.58437013626098632812e-02) (70, -5.01253530383110046387e-02) (71, 4.26271408796310424805e-02) (72, -1.11237570643424987793e-01) (73, 3.63595224916934967041e-02) (74, -2.39323619753122329712e-02) (75, 4.60786335170269012451e-02) (76, -1.70266907662153244019e-03) (77, -3.17923910915851593018e-02) (78, 2.93128322809934616089e-02) (79, 4.30392883718013763428e-02) (80, -4.40038330852985382080e-02) (81, 3.37322354316711425781e-02) (82, -1.23198460787534713745e-02) (83, -2.25304048508405685425e-02) (84, -3.21496129035949707031e-02) (85, -9.24455001950263977051e-02) (86, -9.57031771540641784668e-02) (87, -2.53575854003429412842e-02) (88, -6.52204006910324096680e-02) (89, -1.74521263688802719116e-02) (90, 9.06576290726661682129e-02) (91, -5.36429099738597869873e-02) (92, -8.01478549838066101074e-02) (93, 9.94404777884483337402e-02) (94, 6.37541934847831726074e-02) (95, 8.80077704787254333496e-02) (96, -1.43880173563957214355e-02) (97, -2.75462538003921508789e-01) (98, 1.74388606101274490356e-02) (99, -2.23536454141139984131e-02) (100, -6.22870251536369323730e-02) (101, -2.31833770871162414551e-01) (102, 6.55924975872039794922e-02) (103, 1.78692881017923355103e-02) (104, -1.64427965879440307617e-01) (105, -7.52166733145713806152e-02) (106, 3.01532074809074401855e-02) (107, -9.57775115966796875000e-02) (108, 6.36281399056315422058e-03) (109, -6.96328133344650268555e-02) (110, -1.40697583556175231934e-02) (111, -2.99094825983047485352e-01) (112, 9.65001955628395080566e-02) (113, 5.14822034165263175964e-03) (114, -5.23990280926227569580e-02) (115, -2.12351996451616287231e-02) (116, -1.95336684584617614746e-01) (117, 3.40279601514339447021e-02) (118, 8.07668715715408325195e-02) (119, -9.76515188813209533691e-02) (120, 9.33369249105453491211e-02) (121, -2.69436333328485488892e-02) (122, 7.20782503485679626465e-02) (123, -9.28619429469108581543e-02) (124, 6.07837811112403869629e-02) (125, 3.37800458073616027832e-02) (126, 9.51458290219306945801e-02) (127, -5.36042377352714538574e-02) (128, 2.16463413089513778687e-02) (129, 3.06181628257036209106e-02) (130, -1.76924392580986022949e-02) (131, 1.74656990566290915012e-04) (132, 4.73095215857028961182e-02) (133, -6.97509758174419403076e-03) (134, -1.67570058256387710571e-02) (135, 9.08155459910631179810e-03) (136, 6.88802152872085571289e-02) (137, -9.16597098112106323242e-02) (138, 6.79860115051269531250e-02) (139, 1.61233656108379364014e-02) (140, -3.46805267035961151123e-02) (141, 6.71163052320480346680e-02) (142, 2.62394547462463378906e-02) (143, -4.45664748549461364746e-02) (144, -4.85573112964630126953e-02) (145, -7.72303566336631774902e-02) (146, 4.74823117256164550781e-02) (147, 4.28226478397846221924e-02) (148, 2.14407276362180709839e-02) (149, 1.84653885662555694580e-02) (150, -3.51985022425651550293e-02) (151, 8.96332971751689910889e-03) (152, -2.01913155615329742432e-02) (153, -6.51871785521507263184e-02) (154, 1.58055201172828674316e-02) (155, -5.93928471207618713379e-02) (156, 6.85483142733573913574e-02) (157, 1.10696991905570030212e-02) (158, -1.32336374372243881226e-02) (159, 4.80063771829009056091e-03) (160, -3.20417881011962890625e-02) (161, 8.59262421727180480957e-02) (162, -8.74147191643714904785e-02) (163, -9.35610905289649963379e-02) (164, -1.78237631916999816895e-02) (165, -4.72509860992431640625e-03) (166, 1.92066542804241180420e-02) (167, -4.50091958045959472656e-02) (168, 1.71010289341211318970e-02) (169, 3.88352908194065093994e-02) (170, 7.66394808888435363770e-02) (171, 7.40418881177902221680e-02) (172, -4.42706942558288574219e-02) (173, 2.41385959088802337646e-03) (174, -6.48132264614105224609e-02) (175, 7.93091487139463424683e-03) (176, 3.70301399379968643188e-03) (177, 7.78341442346572875977e-02) (178, -6.25243932008743286133e-02) (179, -5.71925044059753417969e-02) (180, -6.24918611720204353333e-03) (181, -8.99571832269430160522e-03) (182, 5.41627369821071624756e-02) (183, 7.65520632266998291016e-02) (184, 2.66009159386157989502e-02) (185, -2.91248783469200134277e-02) (186, -8.58288854360580444336e-02) (187, 9.94952768087387084961e-03) (188, 7.53470659255981445312e-02) (189, -1.00691625848412513733e-02) (190, -1.08748920261859893799e-01) (191, -6.51386976242065429688e-02) (192, -5.66546618938446044922e-03) (193, -6.72774761915206909180e-02) (194, -5.14949336647987365723e-02) (195, 1.62094399333000183105e-01) (196, 2.80122235417366027832e-02) (197, 6.98011144995689392090e-02) (198, -7.08794444799423217773e-02) (199, -6.67679905891418457031e-02) (200, -4.46221120655536651611e-02) (201, -9.65098813176155090332e-02) (202, -9.30480584502220153809e-02) (203, 1.11071914434432983398e-02) (204, 6.00753724575042724609e-03) (205, -5.87019771337509155273e-02) (206, -8.16764980554580688477e-02) (207, -6.83503225445747375488e-02) (208, -2.62061625719070434570e-01) (209, -1.16793684661388397217e-01) (210, -2.09863781929016113281e-02) (211, 2.42487043142318725586e-02) (212, 7.98230841755867004395e-02) (213, -6.46147280931472778320e-02) (214, 4.80987131595611572266e-03) (215, 2.78009846806526184082e-02) (216, 7.90270417928695678711e-03) (217, 2.59931311011314392090e-02) (218, -5.56137263774871826172e-02) (219, -8.28824937343597412109e-03) (220, -6.58057406544685363770e-02) (221, -3.36064621806144714355e-02) (222, 3.37036773562431335449e-02) (223, 2.85288020968437194824e-02) (224, -8.83929431438446044922e-04) (225, 8.22087451815605163574e-02) (226, 5.03957271575927734375e-03) (227, -7.28717148303985595703e-02) (228, 4.99501004815101623535e-02) (229, 3.41601446270942687988e-02) (230, -3.96397002041339874268e-02) (231, -9.46720167994499206543e-02) (232, 3.76502498984336853027e-02) (233, -3.26877534389495849609e-02) (234, 1.64351835846900939941e-02) (235, -5.63422106206417083740e-02) (236, 8.61027091741561889648e-03) (237, 3.47586944699287414551e-02) (238, -2.46925279498100280762e-02) (239, 3.21361348032951354980e-02) (240, -9.85687673091888427734e-02) (241, 5.43210878968238830566e-02) (242, -4.36151698231697082520e-02) (243, 8.12543258070945739746e-02) (244, 8.97063687443733215332e-02) (245, 6.11947104334831237793e-02) (246, 9.05530154705047607422e-03) (247, -2.39092111587524414062e-03) (248, -1.28121525049209594727e-02) (249, 5.34415915608406066895e-02) (250, 8.93208310008049011230e-02) (251, 2.13821083307266235352e-02) (252, -8.01648795604705810547e-02) (253, 2.30244994163513183594e-02) (254, -5.00890985131263732910e-02) (255, 1.89511924982070922852e-02) (256, -1.92415165901184082031e+00) (0, 5.49504831433296203613e-02) (1, 4.60794642567634582520e-02) (2, -4.48166690766811370850e-02) (3, -1.08893886208534240723e-02) (4, -9.35602262616157531738e-02) (5, -3.94886806607246398926e-02) (6, -7.32391327619552612305e-02) (7, -2.62479782104492187500e-02) (8, 7.69465044140815734863e-02) (9, -2.95813381671905517578e-02) (10, 8.23622867465019226074e-02) (11, 1.17051973938941955566e-02) (12, 4.57261279225349426270e-02) (13, 1.44984126091003417969e-02) (14, 1.31364241242408752441e-02) (15, 4.72217798233032226562e-05) (16, 7.08832368254661560059e-02) (17, -5.60925155878067016602e-03) (18, -1.02464109659194946289e-02) (19, 3.20779457688331604004e-02) (20, -9.65539440512657165527e-02) (21, 8.73626694083213806152e-02) (22, -8.07342082262039184570e-02) (23, 5.68876340985298156738e-02) (24, 7.66834989190101623535e-02) (25, 4.06479015946388244629e-02) (26, 7.67227634787559509277e-02) (27, -2.91995704174041748047e-04) (28, 9.05588045716285705566e-02) (29, -4.32605296373367309570e-03) (30, -9.50587615370750427246e-02) (31, 4.55092862248420715332e-02) (32, -5.82465790212154388428e-02) (33, -3.98754253983497619629e-02) (34, -6.53801113367080688477e-02) (35, -5.18068037927150726318e-02) (36, 2.06359028816223144531e-02) (37, -3.86192463338375091553e-02) (38, 2.19452157616615295410e-02) (39, -2.41760164499282836914e-03) (40, 3.17994132637977600098e-02) (41, 4.30749356746673583984e-03) (42, -9.07124131917953491211e-02) (43, -2.24744528532028198242e-02) (44, -8.11940878629684448242e-02) (45, 2.24240198731422424316e-02) (46, 7.75727704167366027832e-02) (47, 8.96891579031944274902e-02) (48, -8.31852331757545471191e-02) (49, -3.26736420392990112305e-02) (50, 2.17671021819114685059e-02) (51, -7.97391682863235473633e-02) (52, -4.53109703958034515381e-02) (53, 4.10329028964042663574e-02) (54, 7.71484747529029846191e-02) (55, -6.86274692416191101074e-02) (56, -1.83192044496536254883e-02) (57, 5.38712218403816223145e-02) (58, 3.10805365443229675293e-02) (59, -2.77604013681411743164e-02) (60, -5.04548214375972747803e-02) (61, 3.60217764973640441895e-02) (62, -8.22511315345764160156e-02) (63, -8.70139896869659423828e-03) (64, 9.61463525891304016113e-02) (65, -5.36576732993125915527e-02) (66, 6.24553449451923370361e-02) (67, -6.87917787581682205200e-03) (68, 3.92709393054246902466e-03) (69, -4.83598113059997558594e-02) (70, -9.24048200249671936035e-02) (71, -5.46357519924640655518e-02) (72, 1.08337260782718658447e-01) (73, -3.17329280078411102295e-02) (74, 1.79272945970296859741e-02) (75, 8.34918543696403503418e-02) (76, 1.20696369558572769165e-02) (77, 7.72644346579909324646e-03) (78, 7.73066729307174682617e-02) (79, 5.87896890938282012939e-02) (80, 5.61210140585899353027e-02) (81, -5.30881388112902641296e-03) (82, 6.43657892942428588867e-02) (83, -6.38089701533317565918e-02) (84, -1.22579103335738182068e-02) (85, 5.46585991978645324707e-02) (86, -4.99353334307670593262e-02) (87, 3.58937941491603851318e-02) (88, 1.08957299962639808655e-02) (89, 9.66090261936187744141e-02) (90, 9.10135731101036071777e-02) (91, 6.37167319655418395996e-02) (92, 2.11374759674072265625e-02) (93, -9.12911519408226013184e-02) (94, -4.49846684932708740234e-02) (95, 1.72838196158409118652e-02) (96, -3.89223955571651458740e-02) (97, 3.99782024323940277100e-02) (98, -3.11294347047805786133e-02) (99, -1.69719204306602478027e-01) (100, 2.76353061199188232422e-02) (101, -5.71248829364776611328e-01) (102, -6.78351745009422302246e-02) (103, 1.20719417463988065720e-03) (104, 3.71232658624649047852e-01) (105, -2.52107590436935424805e-01) (106, -1.21298059821128845215e-01) (107, 1.86186321079730987549e-02) (108, -2.53416538238525390625e-01) (109, -1.89127810299396514893e-02) (110, -9.78393107652664184570e-02) (111, 1.70565862208604812622e-02) (112, -1.87471076846122741699e-01) (113, -4.09116931259632110596e-02) (114, -3.39256525039672851562e-01) (115, -4.24133807420730590820e-01) (116, 2.04550269991159439087e-02) (117, -4.20705884695053100586e-01) (118, -1.73912525177001953125e-01) (119, 1.87032803893089294434e-01) (120, -5.98603487014770507812e-02) (121, 8.37173685431480407715e-02) (122, -1.07275128364562988281e-01) (123, 9.50223580002784729004e-02) (124, -6.80858641862869262695e-02) (125, -4.25939634442329406738e-02) (126, 1.23061761260032653809e-02) (127, -7.00825452804565429688e-03) (128, -1.46601889282464981079e-02) (129, 8.24243873357772827148e-02) (130, 4.96717728674411773682e-03) (131, 1.91973019391298294067e-02) (132, 9.70643162727355957031e-02) (133, -5.11905783787369728088e-03) (134, 3.24956998229026794434e-02) (135, -2.51351874321699142456e-02) (136, -6.49130865931510925293e-02) (137, 3.90409715473651885986e-02) (138, -1.40372058376669883728e-02) (139, -1.17696011438965797424e-02) (140, 2.33101937919855117798e-02) (141, -3.17415148019790649414e-02) (142, -7.95744173228740692139e-03) (143, 1.04252859950065612793e-01) (144, -6.96042254567146301270e-02) (145, 2.33352780342102050781e-02) (146, 7.15882703661918640137e-03) (147, 4.67016920447349548340e-02) (148, -8.80594402551651000977e-02) (149, 3.85848022997379302979e-02) (150, 9.34738144278526306152e-02) (151, -1.46989449858665466309e-02) (152, 6.17900975048542022705e-02) (153, 9.58970934152603149414e-02) (154, -1.90210938453674316406e-02) (155, 9.36712175607681274414e-02) (156, -4.65983748435974121094e-02) (157, 9.30228903889656066895e-02) (158, -1.28124421462416648865e-02) (159, 6.56025018543004989624e-03) (160, -4.16965084150433540344e-03) (161, 5.49081414937973022461e-02) (162, -9.53668802976608276367e-02) (163, 3.38703468441963195801e-02) (164, -5.73557950556278228760e-02) (165, 4.26196716725826263428e-02) (166, -9.93421822786331176758e-02) (167, -3.60510461032390594482e-02) (168, -7.30987116694450378418e-02) (169, -2.36026912927627563477e-01) (170, 4.02054227888584136963e-02) (171, 9.32120978832244873047e-02) (172, 5.17328307032585144043e-02) (173, -6.19230307638645172119e-02) (174, 8.37448835372924804688e-02) (175, 7.89362788200378417969e-02) (176, 1.09000951051712036133e-01) (177, 3.39254271239042282104e-03) (178, 6.09194561839103698730e-02) (179, 8.18088501691818237305e-02) (180, -5.47755323350429534912e-02) (181, 7.93674662709236145020e-02) (182, -3.83671484887599945068e-02) (183, 1.02784052491188049316e-01) (184, 7.35277533531188964844e-02) (185, 3.90919707715511322021e-02) (186, 1.03075899183750152588e-01) (187, 9.10298153758049011230e-02) (188, 4.84202392399311065674e-02) (189, 1.46479280665516853333e-02) (190, 5.27611225843429565430e-02) (191, -1.56259052455425262451e-02) (192, -7.13794752955436706543e-02) (193, -2.33628600835800170898e-03) (194, -9.77168455719947814941e-02) (195, -3.99268239736557006836e-01) (196, -5.97493499517440795898e-02) (197, -1.06041952967643737793e-01) (198, 4.55544069409370422363e-02) (199, 1.86225920915603637695e-02) (200, -1.14869922399520874023e-02) (201, -4.41267341375350952148e-03) (202, 1.32581740617752075195e-02) (203, -5.97541742026805877686e-02) (204, 3.34348902106285095215e-02) (205, 6.42739236354827880859e-04) (206, -7.77239203453063964844e-02) (207, -6.16888701915740966797e-03) (208, 5.05458891391754150391e-01) (209, 2.44020685553550720215e-01) (210, -3.44548076391220092773e-02) (211, -7.35210925340652465820e-02) (212, -1.05899050831794738770e-02) (213, 2.24619954824447631836e-02) (214, -7.96188861131668090820e-02) (215, -8.44214707612991333008e-02) (216, -4.03960905969142913818e-02) (217, -9.20780301094055175781e-02) (218, 9.50175151228904724121e-02) (219, 8.92770960927009582520e-02) (220, -1.79067775607109069824e-02) (221, -2.03597843647003173828e-02) (222, -4.21462170779705047607e-02) (223, 1.07137411832809448242e-02) (224, 7.73039236664772033691e-02) (225, -3.98630611598491668701e-02) (226, 8.19784626364707946777e-02) (227, -8.24454277753829956055e-02) (228, -3.69875282049179077148e-02) (229, 2.75328680872917175293e-02) (230, 3.61771658062934875488e-02) (231, 5.15254810452461242676e-02) (232, -7.68798068165779113770e-02) (233, -5.05646578967571258545e-02) (234, 9.17713120579719543457e-02) (235, 5.65550848841667175293e-02) (236, 5.00780865550041198730e-02) (237, -8.59526246786117553711e-02) (238, -4.96137998998165130615e-02) (239, 4.43793013691902160645e-02) (240, 7.31535628437995910645e-02) (241, 1.59313902258872985840e-02) (242, 7.08582177758216857910e-02) (243, -3.74363437294960021973e-02) (244, -6.16066046059131622314e-02) (245, 9.12393406033515930176e-02) (246, -2.18578130006790161133e-02) (247, -2.00269371271133422852e-03) (248, 9.91613045334815979004e-02) (249, -2.68402993679046630859e-02) (250, -1.27256065607070922852e-02) (251, -1.87454819679260253906e-02) (252, 5.27999177575111389160e-02) (253, 4.51281741261482238770e-02) (254, 9.19682607054710388184e-02) (255, 3.01038399338722229004e-02) (256, -1.76044785976409912109e+00) (0, 7.39467218518257141113e-02) (1, 4.76584210991859436035e-02) (2, -3.17224189639091491699e-02) (3, 1.47960335016250610352e-03) (4, -1.61644071340560913086e-02) (5, -8.01969468593597412109e-02) (6, 2.45997905731201171875e-02) (7, 3.32709327340126037598e-02) (8, -8.84256511926651000977e-02) (9, -1.88451260328292846680e-02) (10, -1.66509822010993957520e-02) (11, -7.43782669305801391602e-02) (12, 3.15410718321800231934e-02) (13, -7.22716748714447021484e-02) (14, 9.87752899527549743652e-02) (15, -5.25275319814682006836e-02) (16, 9.85865518450736999512e-02) (17, -3.86610515415668487549e-02) (18, -1.41341313719749450684e-02) (19, 8.98258760571479797363e-02) (20, 3.94811406731605529785e-02) (21, 8.38631764054298400879e-02) (22, 8.89871791005134582520e-02) (23, -8.73591676354408264160e-02) (24, -2.88624316453933715820e-02) (25, -2.97583043575286865234e-02) (26, 6.54407516121864318848e-02) (27, -8.37342590093612670898e-02) (28, -3.77900414168834686279e-02) (29, -4.45540994405746459961e-03) (30, -7.84691497683525085449e-02) (31, -6.38433173298835754395e-02) (32, -5.67969903349876403809e-02) (33, -1.01915672421455383301e-02) (34, 3.76362875103950500488e-02) (35, 2.70385965704917907715e-02) (36, 9.61148738861083984375e-03) (37, -3.77639308571815490723e-02) (38, -3.96904721856117248535e-02) (39, 2.11858376860618591309e-02) (40, 4.33909520506858825684e-02) (41, 4.36585620045661926270e-02) (42, 4.68075796961784362793e-02) (43, -2.50679701566696166992e-02) (44, 7.13868811726570129395e-02) (45, 4.55828681588172912598e-02) (46, 2.24044919013977050781e-02) (47, 6.99734166264533996582e-02) (48, -9.30781885981559753418e-02) (49, -9.17296409606933593750e-02) (50, 5.97993060946464538574e-02) (51, 4.64029535651206970215e-02) (52, 9.21335294842720031738e-02) (53, 4.87864688038825988770e-02) (54, 5.90437725186347961426e-02) (55, -3.67289036512374877930e-02) (56, -8.09718370437622070312e-02) (57, 2.44845300912857055664e-02) (58, -2.04631686210632324219e-02) (59, -1.87618732452392578125e-02) (60, -7.99708813428878784180e-02) (61, 1.06768310070037841797e-03) (62, 1.73948034644126892090e-02) (63, -3.67678701877593994141e-02) (64, 9.08761098980903625488e-02) (65, -5.00288121402263641357e-02) (66, 1.18561841547489166260e-01) (67, -2.49275583773851394653e-02) (68, 6.83865556493401527405e-03) (69, -5.95254935324192047119e-02) (70, -8.52761119604110717773e-02) (71, -3.89762297272682189941e-02) (72, 1.45285800099372863770e-01) (73, 1.23180136084556579590e-01) (74, 3.08431405574083328247e-02) (75, 6.45474642515182495117e-02) (76, -2.29855347424745559692e-02) (77, -3.17469872534275054932e-02) (78, 4.00523766875267028809e-02) (79, 1.71556323766708374023e-02) (80, -4.61191907525062561035e-02) (81, -6.03516073897480964661e-03) (82, -5.31147047877311706543e-02) (83, -2.39451508969068527222e-02) (84, 5.31668821349740028381e-03) (85, -7.97629952430725097656e-02) (86, 1.73936262726783752441e-02) (87, -1.62647869437932968140e-02) (88, 4.73195686936378479004e-02) (89, -8.49510729312896728516e-02) (90, 4.45311963558197021484e-02) (91, 7.09460899233818054199e-02) (92, 2.27411836385726928711e-03) (93, -3.81540171802043914795e-02) (94, -6.58217892050743103027e-02) (95, -6.84976577758789062500e-03) (96, 1.68770775198936462402e-02) (97, -6.85288310050964355469e-02) (98, 1.41059026122093200684e-01) (99, -3.23349058628082275391e-01) (100, 9.37605947256088256836e-02) (101, -5.66674530506134033203e-01) (102, 1.77703779190778732300e-02) (103, 7.16352462768554687500e-02) (104, 5.69973826408386230469e-01) (105, -3.52884441614151000977e-01) (106, -9.47986692190170288086e-02) (107, 1.18070662021636962891e-01) (108, -1.96782961487770080566e-01) (109, -2.07667052745819091797e-02) (110, -2.23283082246780395508e-01) (111, 2.33389720320701599121e-01) (112, -2.02490329742431640625e-01) (113, -1.28315135836601257324e-01) (114, -3.49068075418472290039e-01) (115, -4.32153314352035522461e-01) (116, 7.33407437801361083984e-02) (117, -3.94224435091018676758e-01) (118, -3.82552966475486755371e-02) (119, 2.58715808391571044922e-01) (120, -5.19847613759338855743e-04) (121, 2.11944371461868286133e-01) (122, -7.60254412889480590820e-02) (123, -6.17992095649242401123e-02) (124, 7.95863196253776550293e-02) (125, -3.12958136200904846191e-02) (126, 3.13510373234748840332e-02) (127, -3.53660434484481811523e-03) (128, -2.16233544051647186279e-03) (129, 3.04133500903844833374e-02) (130, 3.60244736075401306152e-02) (131, 6.98885768651962280273e-02) (132, 4.06404137611389160156e-02) (133, -7.35840871930122375488e-02) (134, -6.21058456599712371826e-02) (135, 2.51204967498779296875e-02) (136, -4.36797402799129486084e-02) (137, -2.76834722608327865601e-02) (138, -7.79133141040802001953e-02) (139, 4.60683852434158325195e-02) (140, -5.61028979718685150146e-02) (141, -5.88840097188949584961e-02) (142, -5.22166374139487743378e-04) (143, 1.04590263217687606812e-02) (144, 2.70357970148324966431e-02) (145, 1.20106786489486694336e-02) (146, -8.10625925660133361816e-02) (147, -6.99855387210845947266e-02) (148, -5.32937869429588317871e-02) (149, 9.21031162142753601074e-02) (150, 3.26384603977203369141e-03) (151, 8.25540274381637573242e-02) (152, 9.84360184520483016968e-03) (153, 3.77946719527244567871e-02) (154, -7.91465193033218383789e-02) (155, -1.05750160291790962219e-02) (156, -9.34862792491912841797e-02) (157, 5.21649792790412902832e-02) (158, 8.59673693776130676270e-02) (159, -1.45749902003444731236e-04) (160, -7.09659755229949951172e-02) (161, 1.65601149201393127441e-02) (162, -4.17140386998653411865e-02) (163, -8.25952440500259399414e-02) (164, 4.19010594487190246582e-02) (165, 5.28475595638155937195e-03) (166, 4.14823591709136962891e-02) (167, 8.63171070814132690430e-02) (168, 2.10709106177091598511e-02) (169, -1.79998233914375305176e-01) (170, 3.11010796576738357544e-02) (171, -8.11328813433647155762e-02) (172, -9.57883894443511962891e-02) (173, -5.92306852340698242188e-02) (174, 2.51918900758028030396e-02) (175, 2.78351325541734695435e-02) (176, 5.99403865635395050049e-02) (177, 4.94577251374721527100e-02) (178, 7.45410248637199401855e-02) (179, 1.00758545100688934326e-01) (180, 3.73928993940353393555e-02) (181, -1.84373632073402404785e-02) (182, 8.21433141827583312988e-02) (183, -4.87433001399040222168e-02) (184, -8.09039473533630371094e-02) (185, -1.00464634597301483154e-01) (186, 4.16777953505516052246e-02) (187, -8.58281850814819335938e-02) (188, 5.74307553470134735107e-02) (189, 3.13140414655208587646e-02) (190, 2.83636692911386489868e-02) (191, -6.59332722425460815430e-02) (192, -5.82851432263851165771e-02) (193, 8.59408304095268249512e-02) (194, -5.09300939738750457764e-02) (195, -3.23282092809677124023e-01) (196, -8.77934694290161132812e-03) (197, 8.07496383786201477051e-02) (198, 8.13194289803504943848e-02) (199, -3.11554521322250366211e-02) (200, 5.39635345339775085449e-02) (201, 2.32125371694564819336e-02) (202, -1.06946602463722229004e-02) (203, 5.81751540303230285645e-02) (204, 6.39473274350166320801e-02) (205, -8.15057456493377685547e-02) (206, -1.05922445654869079590e-02) (207, 1.65744423866271972656e-02) (208, 1.28351420164108276367e-01) (209, -1.18529507890343666077e-02) (210, 1.58141031861305236816e-02) (211, 6.57395273447036743164e-03) (212, 3.45047041773796081543e-02) (213, -2.40702182054519653320e-03) (214, 5.64942434430122375488e-02) (215, 4.64748963713645935059e-02) (216, 1.11877918243408203125e-04) (217, -4.16542589664459228516e-03) (218, 6.49391040205955505371e-02) (219, -4.52781878411769866943e-02) (220, -7.89416432380676269531e-02) (221, -1.69495493173599243164e-02) (222, -1.35883390903472900391e-02) (223, -3.72267812490463256836e-02) (224, -3.10087278485298156738e-02) (225, 3.54815796017646789551e-02) (226, -5.36108687520027160645e-02) (227, 6.02119341492652893066e-02) (228, 2.60239914059638977051e-02) (229, -7.22914338111877441406e-02) (230, -7.09435194730758666992e-02) (231, -2.00124830007553100586e-02) (232, 5.09210899472236633301e-02) (233, 1.83618217706680297852e-02) (234, -6.18373416364192962646e-02) (235, 1.48684233427047729492e-02) (236, 3.68560776114463806152e-02) (237, 2.75704190135002136230e-02) (238, -6.85571283102035522461e-02) (239, 3.34348529577255249023e-03) (240, 8.78947302699089050293e-02) (241, 4.72569689154624938965e-02) (242, -9.00825634598731994629e-02) (243, 2.23994255065917968750e-02) (244, -5.51500506699085235596e-02) (245, 6.64116814732551574707e-02) (246, -3.11256796121597290039e-02) (247, 4.49618175625801086426e-02) (248, -3.77537496387958526611e-02) (249, -6.61865770816802978516e-02) (250, 9.96836498379707336426e-02) (251, -1.66953876614570617676e-02) (252, 1.68638825416564941406e-02) (253, -1.39047056436538696289e-02) (254, 4.60778400301933288574e-02) (255, 8.58551487326622009277e-02) (256, -1.70824038982391357422e+00) (0, 9.24669578671455383301e-02) (1, 4.60670813918113708496e-02) (2, 4.76008579134941101074e-02) (3, -7.98244699835777282715e-02) (4, 7.51235559582710266113e-02) (5, -7.24116265773773193359e-02) (6, 7.10966214537620544434e-02) (7, -6.51461631059646606445e-03) (8, -3.42489629983901977539e-02) (9, -1.40349417924880981445e-02) (10, -6.96585401892662048340e-02) (11, 9.33214500546455383301e-02) (12, 1.74079313874244689941e-02) (13, 3.36849465966224670410e-02) (14, 8.12161639332771301270e-02) (15, -3.53351086378097534180e-02) (16, 4.36023846268653869629e-02) (17, 3.61559540033340454102e-03) (18, 9.51484590768814086914e-03) (19, 1.00140571594238281250e-02) (20, 7.24899247288703918457e-02) (21, -4.55233268439769744873e-02) (22, 7.22603127360343933105e-02) (23, -9.36966612935066223145e-02) (24, -4.58396933972835540771e-02) (25, -4.44350838661193847656e-02) (26, 2.31672152876853942871e-02) (27, 4.02556136250495910645e-02) (28, -9.83572527766227722168e-02) (29, 9.02237743139266967773e-03) (30, 6.18324950337409973145e-02) (31, 9.41097214818000793457e-02) (32, -4.49105463922023773193e-02) (33, 9.43334400653839111328e-03) (34, -8.57147574424743652344e-02) (35, -6.97869807481765747070e-02) (36, 3.70217040181159973145e-02) (37, 8.53818729519844055176e-02) (38, 2.36984044313430786133e-02) (39, -9.72272604703903198242e-02) (40, -2.86530703306198120117e-02) (41, 5.40398582816123962402e-02) (42, 9.60941985249519348145e-02) (43, 8.87548550963401794434e-02) (44, -1.22751966118812561035e-02) (45, 7.73103609681129455566e-02) (46, -4.65802438557147979736e-02) (47, -6.86728209257125854492e-02) (48, -1.90740451216697692871e-02) (49, 6.29345998167991638184e-02) (50, 4.13412377238273620605e-02) (51, -4.65841367840766906738e-02) (52, -8.25887247920036315918e-02) (53, 1.36015415191650390625e-02) (54, -4.02807965874671936035e-02) (55, -2.84284129738807678223e-02) (56, 6.91664740443229675293e-02) (57, 8.28864201903343200684e-02) (58, -8.81728008389472961426e-02) (59, 7.08092227578163146973e-02) (60, -8.09119641780853271484e-03) (61, 7.36596807837486267090e-02) (62, 6.49189427495002746582e-02) (63, 4.69982698559761047363e-02) (64, -1.69069841504096984863e-02) (65, 7.42983147501945495605e-02) (66, 8.04388076066970825195e-02) (67, -8.96228477358818054199e-02) (68, 6.03343583643436431885e-02) (69, -3.83836752735078334808e-03) (70, -8.04503783583641052246e-02) (71, -6.51110410690307617188e-02) (72, -3.66140641272068023682e-02) (73, -7.42904469370841979980e-02) (74, -7.87721052765846252441e-02) (75, 4.21378389000892639160e-02) (76, 8.31932574510574340820e-02) (77, -2.35350541770458221436e-02) (78, 7.32245892286300659180e-02) (79, -2.54571009427309036255e-02) (80, -6.44310787320137023926e-02) (81, 1.47862341254949569702e-02) (82, 2.34604272991418838501e-02) (83, -4.13431711494922637939e-02) (84, -6.16397373378276824951e-02) (85, 8.82637873291969299316e-02) (86, 2.84102223813533782959e-02) (87, 1.01615414023399353027e-01) (88, 7.20263645052909851074e-02) (89, 4.40124459564685821533e-02) (90, 6.89036622643470764160e-02) (91, -3.48517447710037231445e-02) (92, 1.55119672417640686035e-02) (93, 3.38389351963996887207e-02) (94, -8.78534913063049316406e-02) (95, 9.86049845814704895020e-02) (96, 1.30431205034255981445e-02) (97, -4.57100346684455871582e-02) (98, -8.41836929321289062500e-02) (99, -1.31899133324623107910e-01) (100, -5.18445521593093872070e-02) (101, -4.03111249208450317383e-01) (102, 7.26615136954933404922e-04) (103, 4.87921126186847686768e-02) (104, 2.62570865452289581299e-02) (105, -1.42060443758964538574e-01) (106, -2.32452973723411560059e-02) (107, -2.29029171168804168701e-02) (108, -2.11240619421005249023e-01) (109, -1.05662137269973754883e-01) (110, -1.25377312302589416504e-01) (111, -1.12674072384834289551e-01) (112, -3.60042718239128589630e-03) (113, -7.57092311978340148926e-02) (114, -1.52134239673614501953e-01) (115, -3.21763694286346435547e-01) (116, -1.58183500170707702637e-01) (117, -2.41310507059097290039e-01) (118, -1.43656432628631591797e-01) (119, -1.81559547781944274902e-02) (120, 7.41866081953048706055e-02) (121, 1.01860806345939636230e-01) (122, -1.02144768461585044861e-02) (123, 3.24263423681259155273e-03) (124, 7.04971700906753540039e-03) (125, 5.61982393264770507812e-03) (126, 1.84760987758636474609e-03) (127, -7.99071639776229858398e-02) (128, 1.03281419724225997925e-02) (129, 3.70890200138092041016e-02) (130, 1.47620690986514091492e-02) (131, 9.04419571161270141602e-02) (132, 6.32108598947525024414e-02) (133, -8.56518149375915527344e-02) (134, 3.18138524889945983887e-02) (135, -7.35641196370124816895e-02) (136, 5.11112362146377563477e-02) (137, -8.01064446568489074707e-02) (138, -1.99353378266096115112e-02) (139, 7.16142356395721435547e-02) (140, -1.65244024246931076050e-02) (141, -8.52658078074455261230e-02) (142, -7.47708678245544433594e-02) (143, -3.72460670769214630127e-02) (144, -2.14794781059026718140e-02) (145, 3.95054370164871215820e-02) (146, -3.59324812889099121094e-02) (147, 3.06343398988246917725e-02) (148, 8.53087231516838073730e-02) (149, -3.20171602070331573486e-02) (150, 6.18861392140388488770e-02) (151, 7.27989077568054199219e-02) (152, -5.88063746690750122070e-02) (153, -4.46255952119827270508e-02) (154, -2.36579012125730514526e-02) (155, 4.82282638549804687500e-02) (156, 6.10393583774566650391e-02) (157, 7.80695304274559020996e-02) (158, 6.85614719986915588379e-02) (159, -4.34122905135154724121e-02) (160, -1.74693930894136428833e-02) (161, -3.37615795433521270752e-02) (162, -6.18826113641262054443e-02) (163, -3.93388681113719940186e-02) (164, -2.26876959204673767090e-02) (165, 7.16786533594131469727e-02) (166, -1.66206397116184234619e-02) (167, -7.69803076982498168945e-02) (168, 7.09601491689682006836e-02) (169, -1.90899204462766647339e-02) (170, 8.90990495681762695312e-02) (171, -3.02602667361497879028e-02) (172, 7.67362788319587707520e-02) (173, -8.38650837540626525879e-02) (174, 2.63980347663164138794e-02) (175, -4.59339171648025512695e-02) (176, 7.74490237236022949219e-02) (177, 9.58686918020248413086e-02) (178, 9.98122692108154296875e-02) (179, 4.48242723941802978516e-02) (180, -3.42281423509120941162e-02) (181, 7.31434002518653869629e-02) (182, 1.51454163715243339539e-02) (183, 4.59463847801089286804e-03) (184, -7.22780227661132812500e-02) (185, 9.01465788483619689941e-02) (186, -4.41431216895580291748e-02) (187, 7.28698149323463439941e-02) (188, 7.53843858838081359863e-02) (189, -6.44069910049438476562e-02) (190, -4.58194576203823089600e-02) (191, -2.75558866560459136963e-02) (192, -1.69281214475631713867e-02) (193, -3.58434692025184631348e-02) (194, 2.57906690239906311035e-02) (195, -7.68256634473800659180e-02) (196, -6.41794204711914062500e-02) (197, -9.41622182726860046387e-02) (198, 8.72306600213050842285e-02) (199, -7.41619244217872619629e-02) (200, 7.21334144473075866699e-02) (201, 7.99689218401908874512e-02) (202, -3.89807671308517456055e-03) (203, 4.88696768879890441895e-02) (204, 9.59988012909889221191e-02) (205, -7.61522054672241210938e-02) (206, -9.59185734391212463379e-02) (207, 5.11736050248146057129e-02) (208, 1.03678032755851745605e-01) (209, 1.77595511078834533691e-01) (210, -8.62824916839599609375e-03) (211, -2.53836065530776977539e-02) (212, 4.35131862759590148926e-02) (213, -9.56761017441749572754e-02) (214, 7.51406773924827575684e-02) (215, 4.95315864682197570801e-02) (216, 9.32726934552192687988e-02) (217, -7.61217176914215087891e-02) (218, 1.65292769670486450195e-02) (219, 6.00657537579536437988e-02) (220, -5.90779855847358703613e-02) (221, 3.94838526844978332520e-02) (222, -7.47296363115310668945e-02) (223, 2.39938944578170776367e-02) (224, -9.63596254587173461914e-02) (225, 5.10610416531562805176e-02) (226, -1.56219229102134704590e-02) (227, -6.05390481650829315186e-02) (228, 6.02010115981101989746e-02) (229, -2.83912643790245056152e-02) (230, -3.47009748220443725586e-02) (231, 3.23344245553016662598e-02) (232, -4.84223477542400360107e-02) (233, 6.14009574055671691895e-02) (234, -1.87958925962448120117e-02) (235, -5.24235479533672332764e-02) (236, 8.52487459778785705566e-02) (237, -1.47144645452499389648e-02) (238, 9.87500622868537902832e-02) (239, -9.94955748319625854492e-02) (240, -2.18602269887924194336e-02) (241, -9.87818837165832519531e-03) (242, -2.48791724443435668945e-02) (243, -7.83470422029495239258e-02) (244, -5.55428117513656616211e-03) (245, -4.97384928166866302490e-02) (246, 7.11845532059669494629e-02) (247, -1.22815892100334167480e-02) (248, -2.58602127432823181152e-02) (249, -1.22861713171005249023e-02) (250, -5.22158406674861907959e-02) (251, 1.50618106126785278320e-02) (252, -7.28023350238800048828e-02) (253, -2.69454792141914367676e-02) (254, -6.09443001449108123779e-02) (255, -6.91619589924812316895e-02) (256, -1.95243740081787109375e+00) (0, 2.34337672591209411621e-02) (1, -2.97010093927383422852e-02) (2, 8.43165591359138488770e-02) (3, 9.50425043702125549316e-02) (4, 3.55980172753334045410e-02) (5, 1.66509896516799926758e-02) (6, -5.33798374235630035400e-02) (7, -3.00104916095733642578e-03) (8, 9.78550985455513000488e-02) (9, -5.80339133739471435547e-03) (10, -1.77523046731948852539e-02) (11, -1.68593749403953552246e-02) (12, -7.05333054065704345703e-03) (13, -1.72478705644607543945e-02) (14, 6.12803921103477478027e-02) (15, 8.30684974789619445801e-02) (16, 5.78729584813117980957e-02) (17, 8.29333588480949401855e-02) (18, -2.24858000874519348145e-02) (19, -9.18655470013618469238e-02) (20, 5.41178956627845764160e-02) (21, 6.52326121926307678223e-02) (22, -1.77257508039474487305e-02) (23, -5.81682808697223663330e-02) (24, -8.69832336902618408203e-02) (25, 9.73360463976860046387e-02) (26, -3.09706181287765502930e-02) (27, -1.39287039637565612793e-02) (28, -6.36082589626312255859e-02) (29, -1.32575631141662597656e-04) (30, 1.01868510246276855469e-02) (31, 5.98255172371864318848e-02) (32, 7.01664164662361145020e-02) (33, -5.49658387899398803711e-03) (34, 5.48680350184440612793e-02) (35, 5.76442480087280273438e-03) (36, -8.88455957174301147461e-02) (37, -9.85118150711059570312e-02) (38, -9.72366183996200561523e-02) (39, -9.09905061125755310059e-02) (40, -4.31519746780395507812e-03) (41, -1.49889215826988220215e-02) (42, -7.84987956285476684570e-03) (43, 8.86314734816551208496e-02) (44, 6.77632167935371398926e-02) (45, -4.65694852173328399658e-02) (46, 7.16999694705009460449e-02) (47, 2.56361439824104309082e-02) (48, -6.36361390352249145508e-02) (49, -5.07858358323574066162e-02) (50, 3.37706133723258972168e-02) (51, 9.04817655682563781738e-02) (52, -8.55532214045524597168e-02) (53, -8.39551463723182678223e-02) (54, -6.76865130662918090820e-02) (55, -7.25364536046981811523e-02) (56, -8.66191014647483825684e-02) (57, 1.34287029504776000977e-03) (58, 1.35348439216613769531e-02) (59, -5.02273552119731903076e-02) (60, -9.87896993756294250488e-02) (61, -7.62783065438270568848e-02) (62, -9.04018357396125793457e-02) (63, 7.13767185807228088379e-02) (64, 1.82251110672950744629e-02) (65, 6.06047697365283966064e-02) (66, -2.08096578717231750488e-02) (67, 2.20171846449375152588e-02) (68, 6.27267137169837951660e-02) (69, -2.37303506582975387573e-02) (70, 3.58305424451828002930e-02) (71, -3.92110422253608703613e-02) (72, 7.07228109240531921387e-02) (73, -6.51049837470054626465e-02) (74, -5.24295456707477569580e-02) (75, 3.22667844593524932861e-02) (76, -2.58775595575571060181e-02) (77, -7.95575752854347229004e-02) (78, -4.24280166625976562500e-02) (79, 1.82488672435283660889e-02) (80, -3.29907312989234924316e-02) (81, 9.16360318660736083984e-02) (82, 5.42675098404288291931e-03) (83, -1.45517578348517417908e-02) (84, -8.54702517390251159668e-02) (85, 4.15638536214828491211e-02) (86, 1.18753910064697265625e-02) (87, -7.60627388954162597656e-02) (88, -5.64369335770606994629e-02) (89, -7.18984752893447875977e-02) (90, -2.87306718528270721436e-02) (91, -5.43180629611015319824e-02) (92, -4.96483407914638519287e-02) (93, -1.91178545355796813965e-02) (94, -8.29413458704948425293e-02) (95, 6.85767605900764465332e-02) (96, -5.46516589820384979248e-02) (97, -1.15025445818901062012e-01) (98, -5.32157579436898231506e-03) (99, -1.72066926956176757812e-01) (100, 3.77638451755046844482e-02) (101, -3.32531809806823730469e-01) (102, -3.78741510212421417236e-02) (103, 3.98636683821678161621e-02) (104, 1.03377271443605422974e-02) (105, -1.16802625358104705811e-01) (106, -3.67091521620750427246e-02) (107, 6.48114159703254699707e-02) (108, -5.42010739445686340332e-02) (109, -2.27647181600332260132e-02) (110, -1.54783859848976135254e-01) (111, -1.43755957484245300293e-01) (112, -3.99133823812007904053e-02) (113, 5.16029372811317443848e-02) (114, -1.28482028841972351074e-01) (115, -1.45118400454521179199e-01) (116, -6.75220340490341186523e-02) (117, -2.27607116103172302246e-01) (118, 1.52217280119657516479e-02) (119, 1.07007369399070739746e-01) (120, -6.84938356280326843262e-02) (121, -5.76645508408546447754e-02) (122, -8.74849036335945129395e-02) (123, -7.92365521192550659180e-03) (124, 3.90714406967163085938e-03) (125, -6.76561519503593444824e-02) (126, -3.93468849360942840576e-02) (127, 4.92554977536201477051e-02) (128, 1.00306700915098190308e-02) (129, 4.10989969968795776367e-02) (130, 4.23764288425445556641e-02) (131, -4.85985958948731422424e-03) (132, 9.38562974333763122559e-02) (133, -6.97473809123039245605e-02) (134, -6.17647059261798858643e-02) (135, -4.21751476824283599854e-02) (136, 5.50413168966770172119e-02) (137, 9.36862360686063766479e-03) (138, -8.77526476979255676270e-02) (139, -4.16905432939529418945e-03) (140, -6.20421096682548522949e-02) (141, -1.71698741614818572998e-02) (142, 1.62104349583387374878e-02) (143, 5.78921325504779815674e-02) (144, -3.41637916862964630127e-02) (145, -8.01182165741920471191e-02) (146, -6.72052009031176567078e-03) (147, 8.81439372897148132324e-02) (148, -6.49442672729492187500e-02) (149, -5.45816123485565185547e-02) (150, 6.06184676289558410645e-02) (151, -2.29648835957050323486e-02) (152, -3.15566062927246093750e-02) (153, 7.58875161409378051758e-02) (154, 6.87931180000305175781e-02) (155, 7.23663121461868286133e-02) (156, -9.18163284659385681152e-02) (157, -7.04260095953941345215e-02) (158, 2.13673226535320281982e-02) (159, 3.41223999857902526855e-02) (160, 7.58740156888961791992e-02) (161, -1.80267300456762313843e-02) (162, -6.71440139412879943848e-02) (163, 8.32979083061218261719e-02) (164, 1.56962871551513671875e-02) (165, -2.49089598655700683594e-02) (166, -5.48164062201976776123e-02) (167, -3.04843988269567489624e-02) (168, 7.21713230013847351074e-02) (169, -1.03577733039855957031e-01) (170, 7.15790241956710815430e-02) (171, -7.25660473108291625977e-02) (172, 4.17893901467323303223e-02) (173, -7.54260085523128509521e-03) (174, 9.03239175677299499512e-02) (175, -9.31852310895919799805e-02) (176, -1.07748592272400856018e-02) (177, -1.96850281208753585815e-02) (178, 8.69880244135856628418e-02) (179, 4.32876348495483398438e-02) (180, 2.04067323356866836548e-02) (181, 3.54765094816684722900e-02) (182, -7.72947520017623901367e-02) (183, 9.46544259786605834961e-02) (184, 1.22079998254776000977e-02) (185, 9.08470451831817626953e-02) (186, 6.38055354356765747070e-02) (187, 3.29675376415252685547e-02) (188, -8.48602801561355590820e-02) (189, -2.66705993562936782837e-02) (190, -5.48457838594913482666e-02) (191, -9.50059965252876281738e-02) (192, 7.51849785447120666504e-02) (193, 1.36880651116371154785e-02) (194, 9.60432365536689758301e-02) (195, -1.11899025738239288330e-01) (196, 8.87950733304023742676e-02) (197, -6.12148232758045196533e-02) (198, 6.32902756333351135254e-02) (199, 7.52686783671379089355e-02) (200, -8.32594931125640869141e-04) (201, 3.75951901078224182129e-02) (202, -9.68773961067199707031e-02) (203, -5.90431988239288330078e-02) (204, -6.98359608650207519531e-02) (205, 9.44561138749122619629e-02) (206, -5.13702258467674255371e-02) (207, 4.29963991045951843262e-02) (208, -2.20199584960937500000e-01) (209, -1.42494708299636840820e-01) (210, -8.81303101778030395508e-03) (211, -9.00080054998397827148e-02) (212, -9.33754071593284606934e-02) (213, 1.64604410529136657715e-02) (214, -9.10395979881286621094e-02) (215, 4.18348982930183410645e-02) (216, 1.08931660652160644531e-02) (217, 8.03112760186195373535e-02) (218, -1.47073119878768920898e-02) (219, 3.51382419466972351074e-02) (220, -2.66999155282974243164e-02) (221, 6.35416433215141296387e-02) (222, 4.78050485253334045410e-02) (223, -5.15149347484111785889e-02) (224, -2.27702930569648742676e-02) (225, 4.38482835888862609863e-02) (226, 3.93663421273231506348e-02) (227, -3.39752286672592163086e-02) (228, 8.51070359349250793457e-02) (229, 2.65661627054214477539e-03) (230, -5.87065555155277252197e-02) (231, -1.57255679368972778320e-02) (232, -5.97481951117515563965e-02) (233, -5.55839501321315765381e-02) (234, 2.52312347292900085449e-02) (235, -2.95841544866561889648e-02) (236, -6.11278377473354339600e-02) (237, 7.38610103726387023926e-02) (238, -8.65877568721771240234e-02) (239, 1.83710679411888122559e-02) (240, -7.88210332393646240234e-02) (241, 4.59921360015869140625e-03) (242, 2.83630564808845520020e-02) (243, -7.21964389085769653320e-02) (244, -7.89403319358825683594e-02) (245, 3.73234674334526062012e-02) (246, 6.96384534239768981934e-02) (247, 3.19528356194496154785e-02) (248, 1.76347345113754272461e-02) (249, -4.50688563287258148193e-02) (250, -3.29089313745498657227e-02) (251, 9.09348204731941223145e-02) (252, -8.15272107720375061035e-02) (253, -8.51038917899131774902e-02) (254, -6.05801157653331756592e-02) (255, -4.29750233888626098633e-03) (256, -1.93295669555664062500e+00) (0, 7.87862315773963928223e-02) (1, 6.17272779345512390137e-02) (2, 4.38514277338981628418e-02) (3, -1.85571610927581787109e-02) (4, -9.69792827963829040527e-02) (5, -7.18741416931152343750e-02) (6, 2.16946452856063842773e-02) (7, -5.25632351636886596680e-02) (8, 5.33570870757102966309e-02) (9, 9.21104922890663146973e-02) (10, -1.36910751461982727051e-02) (11, 2.72181108593940734863e-02) (12, -9.44772660732269287109e-02) (13, -9.53200086951255798340e-02) (14, 4.83970716595649719238e-02) (15, 1.01219564676284790039e-02) (16, 3.30430492758750915527e-02) (17, 7.62006267905235290527e-02) (18, 3.11816260218620300293e-02) (19, -2.96334773302078247070e-02) (20, 4.58390787243843078613e-02) (21, -3.68655472993850708008e-02) (22, 8.80012586712837219238e-02) (23, -9.92297679185867309570e-02) (24, 3.02255228161811828613e-02) (25, 7.89360776543617248535e-02) (26, -8.07569772005081176758e-02) (27, 4.51216176152229309082e-02) (28, -8.16440433263778686523e-02) (29, 1.49455219507217407227e-02) (30, 3.86601686477661132812e-03) (31, 9.71421822905540466309e-02) (32, -2.33272090554237365723e-02) (33, -5.22825643420219421387e-02) (34, -2.14149802923202514648e-02) (35, -2.03064903616905212402e-02) (36, -2.41567045450210571289e-02) (37, -9.97203364968299865723e-02) (38, 2.71302685141563415527e-02) (39, -7.07996189594268798828e-02) (40, 9.23901721835136413574e-02) (41, -8.65608081221580505371e-02) (42, 5.64184859395027160645e-02) (43, 9.79129001498222351074e-02) (44, -8.18808153271675109863e-02) (45, 4.81555610895156860352e-03) (46, 8.03486257791519165039e-03) (47, 5.11622503399848937988e-02) (48, -1.89838111400604248047e-02) (49, -6.07835240662097930908e-02) (50, -7.84712433815002441406e-02) (51, -7.31447264552116394043e-02) (52, 2.35092639923095703125e-03) (53, -9.04699936509132385254e-02) (54, -7.23744928836822509766e-02) (55, -6.74235671758651733398e-02) (56, 8.84660854935646057129e-02) (57, -5.31314723193645477295e-02) (58, 7.76980593800544738770e-02) (59, -9.31779593229293823242e-02) (60, 6.18140473961830139160e-02) (61, -1.84359252452850341797e-02) (62, -9.60357785224914550781e-02) (63, -6.15131631493568420410e-02) (64, 2.92815044522285461426e-02) (65, -2.16250438243150711060e-02) (66, 5.04563376307487487793e-02) (67, -1.21345162391662597656e-01) (68, -2.79378145933151245117e-02) (69, -6.48909285664558410645e-02) (70, 